501 50
the 0.481192 0.114944 0.146258 0.0401524 -1.10979 -0.147589 -0.0632034 0.240782 0.708124 0.177662 0.385847 -0.553977 -0.287812 -0.0337654 -0.380266 0.0722159 -0.813727 0.236374 -0.0853274 0.150912 0.538448 0.207157 0.656751 0.350483 0.03201 0.252512 0.358818 -0.713966 0.281348 -0.181327 -0.404944 -0.0396742 0.0236526 -0.471879 -0.410541 0.0128125 0.10784 0.521248 0.0801202 -0.417603 -0.308933 0.0870871 0.606664 0.138819 0.130256 0.114381 -0.997155 -0.229526 0.460283 -0.0746122
of 0.422419 -0.31498 0.289009 0.251502 -0.664988 -0.00388272 -0.120225 1.00474 0.751213 0.204627 0.105957 -0.191011 -0.520845 0.379055 -0.463837 -0.286444 -1.1002 -0.0300834 -0.0602586 -0.152382 0.389427 0.0221524 0.276443 -0.213152 -0.566351 0.448351 0.314629 -0.674973 0.0402766 -0.78957 -0.728583 -0.0351845 0.221431 -0.376866 -0.283492 0.006311 -0.166525 -0.02155 0.15057 0.073431 -0.467883 0.106812 0.590167 -0.147108 -0.250329 0.189407 -1.03214 0.128791 0.132738 0.189068
and 0.414205 -0.0585991 0.341188 0.307435 -0.938015 -0.163284 -0.00489662 0.717564 0.676849 0.198116 0.243216 -0.344182 -0.329224 0.267194 -0.428923 -0.266595 -0.897164 -0.0738648 -0.0378047 0.0276701 0.556949 0.14016 0.407714 0.163641 -0.459422 0.235771 0.26932 -0.369004 -0.249506 -0.56535 -0.398916 -0.160479 0.283353 -0.0887171 -0.20105 0.146284 -0.134439 0.253019 0.261753 -0.123803 -0.491314 0.0466079 0.434152 0.320111 -0.0344912 0.191271 -0.941325 -0.0918534 0.366077 0.1307
in 0.218001 -0.18912 0.504318 0.280393 -0.775002 0.11091 -0.236861 0.80575 0.657629 0.302427 0.433355 -0.059612 -0.533702 0.420355 -0.392482 -0.365949 -0.975239 -0.156092 -0.184766 -0.147236 0.328548 0.142733 0.328588 0.219087 -0.559219 0.29521 0.399618 -0.436524 -0.0428307 -0.620783 -0.454802 0.19574 0.0295431 -0.3088 -0.415296 -0.158645 -0.136125 0.308207 0.217258 -0.0045154 -0.455841 -0.0690503 0.453701 0.1836 -0.120332 0.269079 -0.933471 0.113543 0.284837 0.403468
to 0.097482 -0.0247346 0.455669 0.0713241 -0.432324 -0.428366 -0.0519544 0.765518 0.711727 0.110414 -0.138872 -0.356299 -0.253427 0.259594 -0.231505 0.116964 -0.766074 -0.039603 -0.281872 -0.0746024 0.518813 0.770758 0.270969 0.649161 -0.42849 0.0977476 -0.012218 -0.292233 -0.385778 -0.846938 -0.380041 0.0495779 0.284051 -0.29755 0.0136957 0.141674 -0.287226 0.286373 0.220797 -0.239113 -0.731136 -0.116539 0.69585 0.16209 -0.171808 0.274095 -1.17902 0.344541 0.226595 0.509018
was 0.743503 -0.219687 0.630859 0.189543 -0.734124 0.281838 -0.256248 0.932596 0.425846 -0.307763 0.568447 0.155871 -0.575594 0.703042 -0.0490383 -0.0620161 -0.801524 -0.251176 -0.301118 -0.375997 0.337905 0.653957 0.855469 0.123425 -0.334748 0.236197 1.05479 -0.451971 0.0817836 -0.149519 -0.595272 0.149396 -0.124963 -0.284149 0.0751628 -0.10068 0.268971 0.390084 0.208225 0.214898 -0.0168618 0.220242 0.201806 0.171113 -0.0456709 -0.169592 -1.10004 -0.017665 0.211219 0.23398
is 0.459386 -0.294196 0.576932 0.415239 -0.753269 0.148147 -0.691806 0.554182 0.606315 0.268711 0.611888 -0.235741 -0.140472 0.372451 -0.498448 -0.305131 -0.733118 -0.279021 0.0870202 -0.504272 0.852962 0.461728 0.603495 -0.530359 -0.49192 0.919233 0.72612 -0.495833 -0.0916867 -0.233348 -0.832931 -0.0718616 0.02688 -0.544653 -0.902341 0.0400422 -0.485333 -0.137943 0.481405 0.0690371 -0.927495 -0.0382945 0.150568 -0.372555 -0.257146 -0.057132 -0.437076 -0.63018 0.0677571 0.119527
for 0.240618 0.166711 0.382984 0.361427 -0.840945 -0.152259 -0.0497632 0.69922 0.748511 0.337517 -0.0393315 -0.200059 -0.495781 0.352012 -0.38444 -0.0505624 -0.528893 -0.0211197 -0.340248 -0.499523 0.335665 0.335719 0.266335 0.18704 -0.614594 0.191106 0.611558 -0.451507 -0.0583181 -0.902317 -0.588862 0.088819 0.411641 -0.157597 -0.127485 0.0343373 -0.29291 0.14304 0.358493 0.130073 -0.409847 -0.202126 0.345995 0.41354 -0.333838 -0.0422347 -0.960556 0.123897 0.00153163 0.368889
as 0.178929 0.0311233 0.383683 0.285478 -0.938057 -0.0407058 0.103355 0.664167 0.591581 0.0336315 0.301046 -0.134275 -0.447313 0.394273 -0.784662 -0.0829763 -0.394875 -0.199912 -0.0197685 -0.321068 0.54858 0.357356 0.150532 0.145926 -0.288452 0.244956 0.439825 -0.304926 -0.233311 -0.580267 -0.7138 0.00219208 0.0873197 -0.0466839 -0.26586 -0.218687 -0.204121 0.35253 0.140335 0.209495 -0.800932 -0.0468413 0.2368 0.105298 -0.108704 0.292249 -0.617625 -0.112399 0.261603 0.297329
on 0.361393 0.194677 0.386321 0.101013 -0.6303 0.021094 -0.094212 0.673848 0.643189 0.144393 0.0196457 -0.190431 -0.653567 0.410097 -0.271139 -0.192813 -0.891066 -0.423621 -0.363702 0.0170993 0.165249 0.352704 0.594466 -0.148003 -0.270243 0.33983 0.0414032 -0.384019 -0.0758417 -0.530481 -0.16999 0.369073 0.232679 -0.408866 -0.0986386 0.0342333 0.0314466 0.334493 0.500842 -0.0390505 -0.532535 -0.248381 0.108413 0.372316 -0.215145 0.392357 -1.26173 0.105443 0.0306274 0.642751
with 0.414189 -0.0201856 0.596477 0.431318 -0.699933 -0.233491 0.0829651 0.773067 0.448824 0.232143 0.181464 -0.119701 -0.304451 0.419556 -0.236413 -0.136404 -0.971148 -0.136031 -0.159345 -0.323072 0.482769 0.209675 0.431341 0.117836 -0.346871 0.253549 0.212466 -0.220648 -0.293341 -0.584324 -0.325732 -0.201978 0.761816 -0.0935512 0.0944946 0.0589293 -0.244274 0.142954 0.303255 -0.053 -0.566408 0.0399402 0.332823 0.315135 -0.491303 0.122719 -0.877587 -0.0616097 0.286452 0.174432
by 0.164598 0.117743 0.447771 0.586842 -0.781262 -0.0285669 0.147976 0.806706 0.507283 0.00115935 -0.381605 -0.0896638 -0.603885 0.196833 -0.376773 -0.0546903 -0.964904 -0.316372 -0.300429 0.140248 0.13765 0.279148 0.130351 0.135054 -0.217016 0.362413 -0.0317792 -0.278805 -0.16142 -0.408079 -0.749136 -0.113397 -0.0902098 -0.345095 -0.111432 0.266522 -0.0734709 0.514639 0.278386 0.15478 -0.727428 0.0983311 0.590012 0.38901 0.0129612 0.202999 -1.05376 0.188324 0.25339 0.271067
he -0.00215639 -0.348425 0.227953 0.540406 -1.29868 -0.468757 -0.182312 0.225502 0.198551 0.00280781 1.28092 -0.271463 -0.211642 -0.106504 -0.212531 0.246637 0.0315608 -0.116296 -0.271059 0.354953 0.336552 0.513029 0.827706 0.864021 -0.191875 0.0742888 0.83226 -0.172331 -0.13244 -0.474771 -0.354279 0.572046 -0.411989 0.0477242 0.424785 -0.509935 -0.18299 0.71168 -0.3204 -0.0663534 -0.356052 -0.463358 1.07169 0.688653 0.654073 0.237653 -0.919869 0.356708 0.274691 0.620945
that -0.0636978 0.0305305 0.603934 0.266724 -0.568214 -0.46313 -0.0176214 0.0367927 0.309121 -0.145396 -0.343789 -0.535671 -0.195677 0.00810845 -0.600446 0.47427 -0.459608 -0.0801537 -0.30156 -0.00529369 0.47216 0.685532 0.345063 0.519714 0.12533 0.158459 0.271266 -0.10173 -0.0384262 -0.706795 -0.50702 0.0556162 -0.243177 -0.551525 -0.175341 0.255024 -0.3177 0.386972 -0.00500236 -0.232892 -0.626938 0.0240547 0.620032 -0.0516308 -0.229234 0.65433 -1.0744 0.319074 0.177489 0.330443
from 0.545828 -0.182198 0.420776 0.277229 -0.621808 -0.106732 -0.00616282 0.659348 0.672152 0.188202 0.373023 -0.0877687 -0.284524 0.590145 -0.170934 -0.299052 -1.0906 -0.111158 -0.185043 0.0211288 0.504501 0.254885 0.426567 0.104803 -0.316893 0.267371 0.45389 -0.127518 -0.160256 -0.43257 -0.423472 0.0778388 0.0911174 -0.187355 0.00354515 -0.117082 -0.0185801 0.149666 0.119748 -0.222826 -0.440618 -0.119505 0.040647 -0.0631326 -0.10337 -0.184534 -0.970628 -0.0331648 -0.0862167 0.0904932
at 0.329125 -0.445077 0.470047 0.232406 -0.462517 -0.124786 -0.385009 0.779465 0.528197 0.259924 0.284657 -0.3738 -0.467329 0.53591 -0.452265 -0.245269 -1.03961 -0.387408 -0.253999 -0.0263969 -0.0469276 0.435928 0.55072 0.0151536 -0.449506 0.0641795 0.352112 -0.463714 0.269793 -0.59694 -0.151035 0.350948 0.197643 -0.0631544 -0.184065 -0.301646 -0.211673 0.0963206 0.476683 -0.281493 -0.249371 -0.287159 0.533484 0.222331 -0.257611 -0.191521 -0.99521 0.250043 0.215126 0.805286
his 0.399311 -0.11455 0.182618 0.391222 -1.38577 -0.836881 0.0683948 0.212949 0.14031 -0.305645 1.1147 -0.543351 -0.0765271 0.0887827 -0.0498956 0.278891 0.11061 -0.0402854 0.0901623 0.0473649 0.646213 0.0482608 1.18749 0.890662 -0.0203007 0.0510798 0.719535 -0.526675 -0.0613403 -0.519035 -0.299473 0.134028 0.0568395 0.228009 0.973674 -0.299101 0.0913128 0.358576 -0.0290992 -0.134082 0.00284892 -0.265241 1.21392 0.656945 0.411714 0.425909 -0.93552 -0.093997 0.204234 0.111327
it -0.084556 0.326117 0.284061 0.36073 -0.436328 -0.205005 -0.366607 0.0301945 0.260852 0.286393 -0.0282026 -0.499147 -0.282631 -0.216273 -0.380151 0.368874 -0.726648 0.000957822 -0.269952 0.547038 0.552131 0.756692 0.62617 0.623924 -0.220279 0.139214 0.309936 -0.373758 0.261497 0.0705929 -0.691468 0.110236 -0.505099 -0.635808 -0.834653 0.207433 -0.285344 0.777932 0.0548777 -0.328381 -0.461198 0.0843667 0.310122 -0.392204 0.00201131 0.599579 -0.592596 -0.0292739 0.400259 0.304472
an 0.483782 0.235291 0.0263575 0.385075 -1.05886 -0.308849 -0.0115418 0.369159 0.695994 0.459544 0.316152 -0.611351 -0.0887699 -0.19684 -0.695032 0.131454 -0.102384 -0.129733 -0.21768 0.11078 0.599457 0.15929 0.727238 0.361606 -0.0150142 0.263774 0.587862 -0.35202 0.390385 -0.0959102 -0.479527 0.170982 -0.202502 -0.221149 -0.334234 0.318643 -0.128748 0.522958 0.222153 -0.21743 -0.203237 -0.133904 0.451675 0.166252 0.22904 0.293301 -0.500455 -0.173757 0.487114 0.09427
are 0.366673 0.103601 0.846736 -0.420805 -0.912456 -0.246012 -0.0552818 0.0593654 0.392212 -0.333661 0.105397 -0.702711 -0.138733 0.121925 -0.745552 -0.565972 -1.03052 0.271044 0.399679 -0.582794 0.885406 0.500963 0.363753 -0.362677 -0.460116 0.34899 0.459616 0.0736139 -0.444187 -0.615631 -0.690071 -0.58814 0.497567 -0.156204 -0.778628 -0.122807 -0.182225 -0.0933879 0.167186 -0.134256 -1.1949 0.276532 -0.157254 -0.225095 -0.731362 -0.33991 -0.939736 -0.623315 0.149308 -0.412065
were 0.840957 0.105139 0.861012 -0.330634 -0.711901 -0.173337 0.451832 0.678777 0.129506 -0.951322 -0.171984 -0.123183 -0.485573 0.460478 -0.199897 -0.27218 -1.38525 0.320327 0.0250825 -0.433046 0.223563 0.646032 0.549658 0.296498 -0.289681 0.00227862 0.953287 0.15998 -0.103964 -0.395408 -0.529628 -0.437679 0.503697 -0.158398 0.0155813 -0.101234 0.526122 0.515628 0.140935 -0.0380044 0.0148411 0.658474 -0.0802261 0.299616 -0.457511 -0.564663 -1.52646 0.0884447 0.370672 -0.513596
which -0.0308938 0.427428 0.236848 0.188871 -0.822977 -0.277875 0.0461739 0.220514 0.408007 0.259788 -0.136725 -0.564335 -0.358749 -0.241445 -0.396207 0.111499 -0.718946 0.0211391 -0.0887908 0.367177 0.339535 0.316353 0.397141 0.468351 -0.0857437 0.181777 0.000663481 -0.381664 0.248886 -0.266597 -0.427537 0.0528625 -0.166818 -0.446 -0.419508 0.175837 -0.182984 0.594403 -0.00418527 -0.362404 -0.373804 0.126156 0.494845 0.0332208 -0.045882 0.162113 -0.645121 0.211181 0.364624 0.0827299
this 0.121805 0.583971 0.196161 0.036571 -0.832267 -0.3718 -0.0225544 -0.0540604 0.357722 0.175991 -0.081612 -0.713298 -0.234863 -0.00761619 -0.596301 0.359407 -0.433697 0.116133 -0.168708 0.00202869 0.482463 0.384224 0.609998 0.635127 0.324477 0.140734 0.0516987 -0.358923 0.387948 -0.372281 -0.515654 0.0410327 -0.231868 -0.50299 -0.370285 0.0425439 -0.092505 0.507837 0.158584 -0.281709 -0.304212 0.140062 0.639773 -0.250451 -0.18679 0.513726 -0.657437 -0.0214616 0.0675287 0.0994675
be 0.160188 0.538497 1.05828 0.124406 -0.919728 -0.182331 -0.0148059 -0.257866 0.404362 -0.15517 -0.104514 -0.630551 -0.367752 0.157929 -0.585499 0.11645 -0.229083 0.612074 -0.237913 -0.173878 0.839758 1.1917 0.684893 0.142468 0.43403 0.0635464 0.859538 0.567257 -0.0035431 -0.0508324 -0.817688 -0.373177 -0.496663 -0.556389 -0.39784 -0.400874 -0.00534964 0.496525 -0.0228899 -0.207959 -0.636355 0.088959 -0.0973592 -0.46596 -0.139211 0.0366355 -1.07109 -0.331162 -0.155493 0.137701
or 0.422606 0.127367 0.434548 -0.0651944 -0.80775 -0.534074 0.342007 0.445345 0.926771 0.115725 0.153505 -0.566136 -0.111956 -0.427414 -0.541772 -0.188438 -0.564553 -0.16036 0.167948 -0.375467 0.802877 0.443689 0.389698 0.226472 -0.339401 0.337808 0.371779 -0.134416 0.341626 -0.869185 -0.665759 -0.444235 0.167933 -0.34207 -0.237812 0.110028 -0.0875291 0.145752 0.424775 -0.277523 -0.910668 0.211459 0.079061 -0.310082 -0.326308 -0.15603 -0.581165 0.0286628 0.163977 -0.393129
has 0.0907975 -0.370868 0.472671 0.372227 -0.55963 -0.254437 -0.740559 0.443456 -0.0349219 0.123583 0.0671734 -0.211036 -0.130216 0.494627 -0.904902 -0.285619 -0.667336 -0.571808 -0.227803 -0.709041 0.763616 0.410411 0.470513 0.0150921 -0.925126 0.395067 0.88121 -0.578509 -0.278119 -0.241923 -0.753102 0.184303 0.23288 -0.334024 -0.626839 0.160766 -0.301326 -0.273075 -0.057127 0.249279 -0.713739 0.143788 0.049026 0.15795 -0.622983 -0.0627328 -0.619326 -0.387947 0.411062 -0.0031616
also -0.131348 0.23309 0.228439 0.235306 -0.916172 -0.219213 -0.10435 0.372016 0.403192 0.115023 0.128407 -0.220099 -0.424065 -0.129134 -0.721962 -0.0504072 -0.504246 -0.332756 -0.0796221 -0.00216767 0.394086 0.364807 0.0935661 0.445583 -0.375446 0.0843965 0.303839 -0.267222 -0.0193133 -0.330064 -0.358459 0.0772857 -0.203131 -0.0475263 -0.490977 -0.111271 -0.298549 0.368955 0.0260918 0.0714541 -0.774485 -0.0505496 0.37919 0.36744 0.0495146 0.391305 -0.446474 -0.0832459 0.370997 0.303664
had 0.580726 -0.365129 0.73616 0.177666 -0.308576 -0.323965 0.0555369 0.938803 -0.185365 -0.680264 0.138601 0.128587 -0.352556 0.65789 -0.180198 0.119748 -0.938568 -0.172192 -0.300412 -0.456784 0.237137 0.761456 0.557403 0.501581 -0.502292 -0.0350899 1.14874 -0.0461978 -0.00639935 -0.594553 -0.674232 -0.198348 0.362018 -0.165012 0.323436 0.0882204 0.103007 0.100207 -0.117007 0.115544 0.263539 0.473712 0.0481587 0.171811 -0.324829 -0.0301516 -1.43554 0.17347 0.300961 0.0620035
first -0.0320513 0.378786 0.274199 0.621156 -0.612116 0.455718 -0.0799801 0.173864 0.283339 -0.00573044 0.223212 0.0573499 -0.718243 0.336101 0.0830971 0.150333 -0.916925 0.187007 -0.301724 -0.142001 0.0267932 0.0271445 0.279887 0.232645 -0.0313357 0.0453503 0.411816 -0.631635 0.233658 -0.480054 -0.144995 0.506924 0.139953 -0.356228 -0.0115162 -0.394882 0.0174081 0.246184 0.102096 -0.0174408 -0.314883 -0.0235044 0.793063 0.14683 -0.237847 0.125686 -0.875649 0.276215 -0.27985 0.588328
one -0.185984 0.0254191 0.00325482 0.35376 -1.05478 -0.261174 -0.03876 -0.203585 -0.174547 -0.120855 0.154391 -0.378579 -0.304464 -0.478487 -0.273309 0.169671 -0.62122 0.406452 0.230559 0.178261 0.272278 0.165061 0.208458 0.12544 0.156124 0.00278115 0.530287 -0.493647 0.558652 -0.196943 -0.43 0.146768 0.207279 -0.375482 -0.297281 -0.268547 -0.296808 0.40782 -0.00256939 -0.442629 -0.454132 0.0699884 0.610357 -0.107769 -0.293504 0.0248468 -0.649968 -0.157828 -0.027322 0.182421
their 0.447969 0.708271 0.326326 -0.0936482 -0.956813 -0.540672 0.729763 -0.321481 0.244345 -0.345672 -0.0678542 -0.806667 -0.0367679 -0.133691 -0.0625767 0.0650193 -0.76162 0.464301 0.0475819 -0.318483 0.82507 0.505776 0.531953 0.797122 0.319149 -0.113362 0.112994 -0.34563 -0.434693 -0.469456 0.0239714 -0.2723 0.454103 -0.140055 0.0210483 -0.14811 0.00804878 0.141668 -0.125033 -0.32823 0.0257426 0.00814036 0.403118 0.284972 -0.240561 0.416243 -1.22414 -0.00467291 0.345902 -0.327542
but -0.0976109 0.151527 0.61915 0.166065 -0.218822 -0.457101 0.0940686 0.271629 -0.0974717 -0.0167718 0.290072 -0.160597 -0.304866 0.211329 -0.318583 0.459417 -0.551778 0.0592445 -0.225118 -0.162598 0.436597 0.693741 0.584788 0.656801 -0.117667 -0.106987 0.300223 0.0499695 -0.0447736 -0.845668 -0.661158 -0.0745372 0.058848 -0.371486 -0.119555 -0.0904154 -0.216058 0.4271 0.00881008 -0.109043 -0.39183 0.0502467 0.249274 -0.145108 -0.17484 0.579262 -0.839312 0.110007 0.144377 0.327345
not -0.293432 0.420306 0.74756 -0.0152231 -0.411367 -0.552576 0.0844027 -0.0225544 0.230377 -0.179679 -0.1878 -0.503005 -0.231337 -0.298457 -0.536906 0.689388 -0.311954 0.30407 -0.378551 -0.236514 0.412926 0.975351 0.293328 0.76564 -0.0329118 -0.126459 0.520196 0.275537 0.00148121 -0.728395 -0.791677 -0.00972358 -0.261223 -0.488655 -0.264096 -0.15517 -0.157256 0.393385 -0.0572685 -0.119662 -0.734828 0.153453 0.214627 -0.465343 -0.0686567 0.862006 -0.990828 0.194198 0.104884 0.428472
its 0.481516 0.453749 0.348654 0.0383236 -0.43239 0.0833581 -0.0616241 0.0636472 0.434729 0.420476 -0.0683768 -0.821589 -0.0496089 0.101445 -0.611208 0.129726 -0.617886 0.0437486 0.128044 0.0282873 0.560658 0.366096 0.713302 0.409793 0.179305 -0.00052532 0.159433 -1.05994 0.058633 0.126 -0.388635 0.173791 0.0588778 -0.380872 -0.389326 0.380193 0.0237126 0.721084 -0.432465 -0.30677 -0.181102 0.296019 0.259287 -0.248398 -0.244017 0.450725 -0.594442 -0.440058 0.486961 -0.206007
new 0.0845311 0.0903913 0.105067 -0.0688177 -0.886884 0.312979 0.1045 -0.017444 0.702492 0.277339 -0.229972 0.160015 -0.785732 0.575114 -0.381691 0.158357 -0.857548 0.204137 -0.433526 0.182701 0.818256 0.202231 0.157463 0.687817 -0.431758 -0.0908679 0.647508 -0.736242 -0.514706 -0.319298 0.0160191 0.514195 0.358565 -0.572927 0.456368 -0.13958 0.434054 0.303789 0.217873 -0.117851 -0.447282 -0.356023 0.275601 -0.150534 0.422942 -0.222008 -0.443594 -0.174228 0.809176 0.273513
who -0.0456002 -0.135994 0.0958229 1.11475 -1.19087 -0.389398 0.358859 0.466845 0.0491964 -0.625924 0.0500433 -0.200644 -0.051325 -0.569401 -0.142841 0.0475988 -0.544487 0.04647 -0.305955 0.18754 0.285332 0.419764 0.110682 0.843214 -0.117971 0.33861 0.768925 0.127531 -0.038559 -0.660567 -0.643624 -0.138637 -0.0625404 0.178511 -0.205321 -0.186465 -0.15908 0.313821 -0.0578988 -0.242733 -0.417082 -0.327135 0.642682 0.464978 0.696441 0.155211 -0.813452 0.358737 0.366675 0.0886907
after 0.43103 -0.266943 0.264414 0.472415 -0.305241 -0.00455542 -0.210205 0.672616 0.0538182 -0.0822265 0.357141 0.153718 -0.563979 0.794927 -0.0199829 -0.0513318 -0.775499 -0.301523 -0.257387 -0.304063 0.0765666 0.336895 0.540506 0.596674 0.0340851 0.133136 0.300454 -0.341747 -0.198027 -0.911783 -0.28396 0.219002 0.31585 -0.354716 0.30768 -0.301646 0.230577 0.235747 0.0923664 -0.277609 -0.281797 -0.0782051 0.537576 0.390328 -0.486128 0.143282 -1.09632 0.312856 0.0715388 0.657462
they 0.0127179 0.447153 0.56338 -0.334666 -0.590399 -0.582645 0.461719 -0.357508 -0.046246 -0.665627 -0.00101654 -0.497341 -0.19229 -0.260835 -0.110833 0.185554 -0.909396 0.232002 -0.0840311 -0.0114873 0.63396 1.14131 0.150027 0.953811 -0.145944 -0.214573 0.0767677 0.527048 -0.434945 -0.609787 -0.0583094 -0.407301 0.38046 -0.179902 -0.40725 -0.129736 -0.176367 0.371952 -0.327431 -0.370238 -0.586901 0.163937 0.392291 0.228396 -0.0715576 0.378468 -1.27609 0.347753 0.625478 0.173235
have -0.00297704 0.0925602 1.07748 0.0398511 -0.768572 -0.422269 0.118276 0.0204123 -0.0493076 -0.451782 -0.332297 -0.490831 -0.188549 0.458854 -0.938615 -0.1051 -0.691631 0.0142308 -0.118467 -0.665041 0.788692 0.660065 0.435841 0.238607 -0.181495 -0.0307853 0.959577 0.342409 -0.25441 -0.441494 -0.771477 -0.459005 0.0438766 -0.21854 -0.477677 -0.213353 -0.0116458 -0.0117896 -0.33886 0.130919 -0.582188 0.248965 -0.236117 -0.134323 -0.476538 0.0160651 -1.17841 -0.329025 0.0405493 -0.173081
her -0.584279 -0.264637 0.0469102 0.728937 -1.64401 -0.925282 -0.149916 0.487955 -0.00720243 -0.0247545 -0.0733011 -0.45696 -0.600529 -0.087582 1.10708 0.356564 0.231689 -0.355053 -0.591771 -0.142719 1.52753 0.386884 2.11819 -0.0223892 -0.235751 -0.594582 0.792787 0.0160713 -0.460368 -1.05793 0.711538 0.640076 -0.197348 0.308668 0.159521 -0.0496709 -0.0830906 -0.104333 -0.176105 -1.37271 0.0171404 0.359637 0.417083 0.0367258 -0.119572 1.28045 -1.05111 -0.539081 1.00546 -0.192545
two 0.233853 0.131031 0.166096 0.183146 -1.07876 -0.297638 0.194396 0.129628 -0.307207 0.0918866 0.0269272 -0.204239 -0.494028 -0.316395 -0.249325 0.0652629 -1.09147 0.265931 -0.129096 0.132943 0.304309 -0.238938 0.239878 0.289122 -0.207337 -0.131574 0.133883 -0.0684975 0.427754 -0.566348 -0.182739 -0.0956099 0.794086 -0.127571 -0.204921 -0.199234 0.119588 0.404967 -0.00239745 -0.605147 -0.491685 0.277926 0.376736 0.23476 -0.403747 -0.321613 -1.08055 -0.236117 0.235462 -0.0245004
she -0.970666 -0.461694 0.00599532 0.881237 -1.51652 -0.557043 -0.4006 0.515418 0.0243931 0.359817 -0.080319 -0.112407 -0.724818 -0.106966 0.844992 0.333021 0.200991 -0.641106 -0.908214 0.0377886 1.24146 0.768436 1.7726 -0.0589015 -0.519487 -0.698535 0.843929 0.371536 -0.47271 -1.12035 0.826531 1.06999 -0.637266 0.211721 -0.561258 -0.146904 -0.251893 0.33344 -0.543279 -1.40477 -0.301466 0.334475 0.300556 0.148385 0.174339 1.1968 -0.967338 -0.152524 1.20097 0.353568
been -0.342371 0.0274244 0.314885 -0.417722 -0.423165 -0.398734 -0.17656 0.00875326 -0.41101 -0.51882 -0.105246 -0.3743 -0.233217 -0.114084 -1.11185 0.195569 -0.462933 -0.481092 -0.156883 -0.112124 0.659791 0.70415 0.493353 1.10745 -0.405035 -0.179101 0.75958 -0.171005 0.150559 0.251919 -0.38525 0.00712381 -0.216738 -0.2444 -0.403994 0.36169 0.247809 0.134626 -0.672305 -0.0891386 -0.407903 0.715668 0.629838 0.300867 -0.136699 0.454377 -1.02323 -0.0500312 0.806445 0.160904
other 0.20724 0.199516 0.31132 -0.125505 -0.925981 -0.4364 0.526686 0.0582777 0.258174 -0.251759 0.0746888 -0.466759 -0.274291 -0.124994 -0.71931 -0.29989 -0.73956 0.335189 0.333285 -0.184904 0.596838 -0.0224769 -0.12829 0.0419441 -0.39196 0.147891 0.43535 -0.0068367 -0.202182 -0.656736 -0.17776 -0.432269 0.544876 -0.0862902 -0.185203 0.0486996 0.026566 0.166953 0.0743942 -0.415084 -0.641061 0.272455 0.182126 -0.020588 -0.294859 0.0202481 -0.7652 -0.325488 0.19405 -0.391068
all 0.289413 0.198959 0.247975 -0.0896639 -0.876817 -0.536476 0.223323 -0.0375856 0.160472 -0.288362 -0.102929 -0.694417 -0.120392 -0.593068 -0.072758 0.367711 -0.968601 0.581436 0.037265 -0.0578274 0.267451 0.206307 0.0932387 0.301627 -0.181552 -0.104751 0.470611 -0.39635 -0.0985464 -0.349735 -0.309626 0.0113944 0.498133 -0.462236 -0.250255 -0.0922219 -0.246381 0.200225 0.0832313 -0.136867 -0.366857 0.146711 0.405554 0.196646 -0.410785 -0.126801 -0.847039 -0.0824789 0.145187 -0.183996
when 0.0668119 -0.047915 0.455947 0.180873 -0.333903 -0.218482 -0.142884 0.523073 0.206307 -0.106847 0.495995 0.10043 -0.511903 0.471925 -0.186109 0.224509 -0.453476 -0.288308 -0.270371 -0.174575 0.341506 0.846342 0.567753 0.608078 0.136945 0.0358486 0.0683195 -0.127193 -0.0971628 -0.96032 -0.311855 0.0656295 -0.0551369 -0.349816 0.0933145 -0.0139344 -0.329842 0.382817 0.119144 -0.338363 -0.451857 -0.0959667 0.313953 0.0295076 -0.229927 0.251856 -0.849276 0.441594 0.071647 0.707896
there -0.0217568 0.157921 -0.0977322 -0.309104 -0.525283 -0.62313 -0.111696 0.251983 0.163968 -0.22508 -0.253953 -0.824004 -0.270481 -0.742318 -0.683098 0.246536 -0.915766 0.0662488 -0.00368566 0.379393 0.0868246 0.599932 0.299151 0.834645 -0.640994 0.134909 0.576348 -0.0713218 0.71179 -0.901415 -0.491684 -0.150449 0.28296 -0.233117 -0.76652 0.294058 -0.210471 0.255139 0.190389 -0.56326 -0.228409 0.145658 0.327517 -0.254078 -0.134133 0.250079 -0.478602 0.231738 0.446845 0.00904616
time -0.141203 0.174734 0.0914693 0.149454 -0.204053 -0.139901 -0.265731 -0.117179 -0.162535 -0.409603 0.519729 -0.391095 -0.434722 0.319732 -0.36546 0.361965 -0.341604 0.15782 0.0359192 -0.293801 0.13036 0.825107 0.267851 0.388423 0.050682 0.0268235 0.62518 -0.282151 0.438855 -0.155201 -0.109055 0.620113 0.36863 -0.255357 0.435347 -0.61963 -0.00324802 0.200408 -0.055203 -0.624948 -0.159848 0.159304 0.745859 -0.051225 -0.616578 0.013322 -0.837389 0.242026 -0.369409 0.507302
during 0.105439 -0.149019 0.0155445 0.317292 -0.326883 0.15448 0.017459 0.758599 0.593571 -0.300096 0.297645 0.0663463 -0.81723 1.23259 -0.507156 -0.167839 -0.535591 -0.264179 0.236453 -0.595177 -0.129131 0.0706727 0.429468 0.284428 0.0923896 0.0978047 0.308739 -0.533732 0.0606631 -1.00791 -0.226933 0.165216 0.493357 -0.207853 -0.0315451 -0.610643 0.653386 0.283757 0.229458 -0.178473 -0.287774 0.0853794 0.50639 0.617253 -0.868935 0.18548 -0.990294 0.490632 -0.159539 0.666981
into 0.328232 -0.0824687 0.469626 0.381761 -0.174241 -0.13596 0.00858526 0.545417 0.266411 0.249088 -0.174601 0.0655879 -0.351445 0.649544 -0.0643767 0.0735256 -1.15709 0.046153 0.164696 0.0811664 0.552397 0.329579 0.428409 0.330433 -0.317088 0.215063 -0.650662 -0.271162 -0.615188 -0.857215 -0.38168 0.0206255 0.141488 -0.528996 0.0883782 0.159153 -0.372663 0.35156 -0.0422488 -0.348096 -0.712821 0.25269 0.424291 0.201215 -0.499853 -0.220656 -1.11032 0.610517 0.318899 0.374147
more -0.251818 0.171465 0.266293 0.484294 -0.495692 -0.675504 0.400691 -0.18242 -0.0748823 0.142737 -0.274858 -0.564092 -0.0815999 0.0487114 -0.867081 0.208537 -0.484943 0.293528 -0.00897624 -0.0363006 0.805692 0.396782 0.178695 0.554202 -0.479862 -0.564868 0.670071 -0.0780999 0.0660844 -0.325804 -0.92219 -0.0736606 0.646721 -0.0751188 0.137922 -0.149434 -0.247436 0.669128 -0.0410328 -0.436015 -0.434173 0.331442 0.170921 -0.354174 -0.671356 0.15285 -0.657206 0.093166 0.320999 -0.324571
years -0.0520597 -0.18402 -0.323511 0.20487 -0.651373 0.0105087 -0.474763 0.153716 -0.391678 -0.555982 0.470937 -0.434597 -0.489859 0.0226152 -0.0713599 0.0405262 -0.715172 -0.114559 0.0392276 -0.140835 0.26753 0.407706 0.261659 1.2491 -0.532923 -0.107257 1.46631 -0.164085 0.574772 -0.101672 -0.55123 0.649055 0.77705 0.112023 0.493703 -0.47689 0.563583 0.0749029 -0.617563 -0.723938 0.083159 0.555584 0.649408 0.165487 -0.824725 -0.583066 -0.732601 0.255237 0.297208 0.0174563
school 0.591939 -0.717912 0.0451393 0.35873 -0.18194 0.526175 -0.85962 0.217517 0.725079 -0.171067 -0.136202 -0.0456476 -0.0984257 -0.485862 -0.553629 -0.0335999 -0.903597 0.858463 -0.10771 0.59477 0.754463 1.1586 0.513188 0.410202 -0.442281 0.0648244 0.957649 -0.849109 -0.348519 -0.807935 -0.316082 1.93048 0.0524085 1.73168 -0.316799 -1.21367 -0.074674 -0.107396 0.705431 -0.556984 -0.0258657 0.53447 0.826304 0.41274 0.140753 -0.129449 -0.19693 0.188426 0.38862 0.671085
most -0.897752 -0.0241685 0.242494 0.386944 -0.762283 -0.147996 0.344775 0.167888 0.204054 -0.267288 0.124373 -0.319952 -0.398987 0.270252 -0.911459 -0.23072 -0.64422 0.444403 0.643189 -0.162465 0.161044 -0.0584615 -0.223561 0.210935 -0.0633409 -0.0523491 0.517334 -0.414769 0.152159 -0.209444 -0.795007 0.108733 0.19541 -0.0884242 -0.371111 -0.417446 -0.382095 0.445401 0.0693543 -0.0972441 -0.607408 -0.0447096 0.428874 0.0633366 -0.649432 0.376684 -0.487603 -0.0167442 -0.078207 -0.128358
only -0.272486 0.33249 0.398843 0.138038 -0.378279 -0.296686 0.0230702 0.127898 -0.214848 -0.0145431 0.0437445 -0.235932 -0.409799 -0.303789 -0.199445 0.42532 -0.7471 0.1973 -0.0978751 -0.124861 0.143721 0.472334 0.224368 0.46501 -0.0976033 -0.218088 0.385762 -0.137923 0.258164 -0.690319 -0.612311 0.103348 0.246845 -0.442801 -0.28879 -0.231554 -0.185818 0.250824 0.0220793 -0.121661 -0.536925 -0.0537045 0.237409 -0.335374 -0.401376 0.292695 -0.893248 -0.00160896 -0.101775 0.254204
over 0.0960313 -0.13621 0.25426 0.314076 -0.340774 -0.580794 -0.0381126 0.506897 0.175598 -0.0304002 -0.233229 -0.488981 -0.106647 0.272466 -0.142262 -0.0718766 -1.00153 -0.088921 -0.0250921 -0.0808903 0.148052 0.270114 0.197225 0.469212 -0.324876 0.0133074 0.117281 -0.608843 0.160171 -0.497376 -0.394919 0.11643 0.853017 -0.250729 0.199995 0.100741 -0.00282987 0.314251 -0.0761302 -0.399909 -0.131736 0.0315416 0.318954 0.314591 -0.788018 -0.420083 -1.15857 0.205653 0.136135 0.0931845
up 0.143 0.339394 0.216655 0.534045 -0.600654 -0.57691 -0.000457011 -0.245858 0.150457 0.180242 0.126899 -0.179014 -0.140204 0.0537808 0.389584 -0.00230795 -0.985309 0.538484 -0.173739 0.335284 0.613483 0.819853 0.639195 0.518929 -0.0256085 0.0846894 0.221235 0.0860623 -0.0934029 -0.218815 -0.142634 0.0819388 0.3959 -0.0997551 0.115098 0.107469 -0.33884 0.581202 0.116089 -0.565374 0.00965721 -0.204957 0.0289372 0.268465 -0.0825146 -0.217586 -1.02004 0.230398 0.0675734 -0.0189743
some -0.0721584 0.349982 0.288139 -0.344601 -0.811169 -0.633346 0.561182 -0.212047 0.0388633 -0.389416 -0.0179561 -0.761876 -0.0591516 -0.0451255 -0.892072 -0.0361109 -0.545903 0.290661 0.410123 0.0798313 0.427917 0.169307 0.406944 0.729618 0.0755649 0.0664533 0.354705 -0.144997 -0.0162015 -0.317446 -0.493054 -0.268642 0.0409208 -0.164518 -0.0587602 0.127023 -0.0518747 0.385068 0.0915894 -0.467713 -0.508037 0.289125 0.248646 0.0585785 -0.432804 0.340499 -0.731672 -0.127187 0.203685 -0.456754
city 0.185113 -0.790293 -0.244866 -0.0393762 -0.14882 -0.108515 -0.791124 0.546407 0.780419 0.025066 -0.428485 0.250428 -0.939111 0.303955 -0.300537 -0.272403 -0.860941 0.855373 0.133908 0.739869 0.0492011 0.872621 -0.299787 0.519682 -0.403773 0.910612 1.00742 -0.782468 0.0384616 -0.0246423 -0.500839 0.89006 0.411816 -0.868716 0.0583877 -0.8962 -0.252681 0.677992 -0.580149 -0.426191 0.259572 -0.876145 0.433288 -0.0385546 0.176377 -0.118833 -0.132959 -0.417144 1.1518 0.21588
many -0.181298 0.231764 0.21135 -0.180978 -1.13421 -0.564556 0.489969 -0.221702 0.0404789 -0.579929 -0.0614093 -0.761458 -0.273016 0.152293 -1.14012 -0.229226 -0.573363 0.350995 0.626522 0.00829429 0.389411 0.0226868 0.0601661 0.748557 -0.214552 -0.127308 0.516167 -0.255883 -0.200671 -0.37919 -0.318373 -0.252523 0.191548 0.166779 -0.146931 -0.0484781 -0.0188089 0.532706 -0.0656246 -0.373996 -0.357091 0.166526 0.351998 0.190762 -0.294278 0.210984 -0.552783 -0.098405 0.319599 -0.417741
would 0.326243 0.117222 0.550426 -0.533784 0.184714 -0.823263 -0.0567853 0.11699 0.355818 -0.627005 -0.427372 -0.131173 -0.425433 0.61909 -0.458403 0.978571 -0.665459 -0.0108549 -0.341282 -0.822825 0.497081 1.38678 -0.0820334 0.788489 -0.419183 -0.423198 0.130727 -0.239956 -0.159286 -1.06669 -0.100515 -0.313071 0.688559 -0.503439 0.683605 0.0689984 -0.0416752 -0.163117 -0.0247059 0.0118939 -0.461214 0.360314 0.704781 -0.00257473 -0.0815617 0.56968 -1.45704 0.523108 0.276821 0.734773
world -0.535784 0.354458 0.207733 0.567393 -0.567483 -0.0259366 -0.234055 -0.283835 0.177387 -0.263533 0.391516 -0.622571 0.0944485 1.03073 0.205855 -0.0539001 -0.488705 0.337882 0.560039 -0.483489 0.0840044 -0.0633035 -0.144173 -0.22357 -0.184387 -0.383322 0.879969 -0.913379 0.0781671 -0.556868 0.674714 0.370149 0.283555 -0.624682 -0.807033 -0.495901 0.762861 0.547559 0.316798 0.221835 -0.662392 0.0223308 1.30488 0.0625408 -0.232593 0.219269 -0.802183 0.570664 0.580252 0.59146
can -0.0500149 0.299482 0.225408 -0.831856 -0.0898179 -1.0799 -0.238841 -0.0377758 0.722044 0.0802448 -0.125565 -0.68091 -0.309636 -0.137943 -0.780392 0.144732 -0.557738 -0.1953 0.17339 -0.529731 1.14897 1.27849 0.174823 0.234744 -0.926631 -0.0857891 -0.163003 -0.295739 -0.108198 -0.996821 -0.279684 -0.439801 0.472703 -0.619565 -0.32686 0.33269 -0.851563 -0.643342 0.79464 -0.173138 -1.37492 0.026742 0.842354 -0.290328 -0.564042 0.348388 -0.779929 0.410708 0.314297 0.362113
such 0.172819 0.806746 0.103258 -0.247011 -1.13785 -0.524822 0.605254 -0.268925 0.59592 -0.168536 0.237559 -0.61157 -0.468628 0.186887 -1.68401 -0.0801483 0.157427 0.180071 0.526237 -0.343277 0.816755 0.22372 -0.206555 0.0481967 -0.0485964 0.19686 0.572695 -0.141494 0.0882008 -0.54776 -0.38589 -0.484503 0.155028 0.0327736 -0.131428 -0.0496286 0.150908 0.0813669 0.0743149 0.0195038 -0.760799 0.406793 0.166131 -0.140914 0.190773 0.73544 -0.356949 -0.444148 0.385993 -0.120261
out 0.0712929 -0.0582253 0.232757 0.334231 -0.442097 -0.596886 0.116516 -0.0657234 0.227781 -0.279857 -0.096039 -0.154652 -0.0162105 -0.188082 0.539978 0.275608 -0.890838 0.543242 -0.0800879 0.386341 0.422495 0.749391 0.617283 0.566806 0.135873 0.137709 0.311655 -0.23545 -0.166824 -0.23821 -0.308747 0.220647 0.321543 -0.520404 0.170324 0.395733 -0.423843 0.574012 0.35918 -0.660482 0.0437451 -0.0625759 0.503035 0.448209 -0.39888 -0.383033 -1.05946 0.465513 0.273297 0.0338724
year 0.146409 -0.0337572 -0.0876598 0.204772 -0.449924 0.42122 -0.618255 -0.289687 0.120151 -0.236395 0.0959996 -0.430984 -0.579145 0.0355594 0.357926 -0.209612 -0.817658 -0.0597383 -0.477127 -0.463728 -0.00376655 0.516103 0.0322671 0.445872 -0.0508382 -0.269442 1.0248 -0.62532 0.492643 -0.408997 -0.309825 0.863931 0.590483 0.0291635 0.417141 -0.871984 0.414055 0.0968698 -0.336829 -0.527422 -0.143079 0.357185 0.756904 0.333029 -0.792286 -0.0472319 -0.726415 -0.160161 -0.281226 0.674922
used 0.174282 1.09395 -0.137459 -0.193269 0.0834287 -0.412843 0.426412 -0.221264 0.787587 0.0197294 0.341224 0.0524571 -0.875305 0.0712513 -1.21358 0.532361 -0.469572 0.633159 0.408244 0.202949 0.718229 0.584474 -0.0536634 0.430168 -0.0337121 0.23922 0.967176 -0.32441 0.907032 -0.756369 0.0361663 -0.735995 -0.227573 -0.0257914 -0.366487 0.255608 0.189414 -0.371206 0.554344 -0.237211 -0.944569 0.667056 0.519993 -0.597902 0.203746 0.384488 -0.174587 -0.150062 -0.275625 0.146398
him 0.100494 -0.338821 0.397525 0.697591 -0.728677 -1.27551 0.119439 -0.109232 0.0138317 -0.750791 0.857439 -0.404978 0.0533625 -0.111706 0.470249 0.460232 0.316186 0.244106 -0.0435578 0.349362 0.442713 0.949321 1.13282 0.6061 0.248791 0.128641 0.803072 0.0690929 -0.605961 -0.532994 -0.398872 0.0171518 0.0723581 0.0239144 1.25108 -0.527149 -0.104985 0.457544 -0.390573 -0.432329 -0.481216 -0.492961 1.18766 0.654874 0.454139 0.241228 -1.01491 -0.105479 -0.0215532 0.366649
where 0.112244 -0.280407 0.37262 -0.0413689 -0.497555 -0.408218 -0.23392 0.324147 0.306705 0.339257 0.756445 -0.239923 -0.457815 0.523514 -0.407226 -0.0692869 -0.491632 -0.03927 -0.0732824 0.193575 0.249085 0.462047 0.280984 0.409364 -0.624265 0.148747 0.0884191 0.0834498 -0.0244275 -0.87811 0.0115701 0.301098 -0.0920968 -0.174091 -0.308429 -0.391409 -0.661148 0.0413197 0.112353 -0.294043 -0.555595 -0.618341 0.29719 -0.0978371 0.125689 0.12852 -0.65448 0.428589 0.241019 0.719291
may 0.0387878 0.297684 0.277375 -1.13171 -0.578081 -0.156671 0.0550624 0.388699 0.854921 0.07324 0.534958 -0.32261 -0.431008 -0.451224 -0.495633 -0.0981561 -0.0670362 -0.544501 -0.391386 -0.344434 0.429708 0.787401 0.388706 0.432359 -0.22433 0.117779 0.222875 0.278995 0.400948 -0.625857 0.0430118 0.0420735 0.120771 -0.2968 -0.265637 0.135642 0.287105 -0.0249531 0.487834 -0.0813283 -0.489792 0.106212 0.414909 0.105124 0.112321 0.660499 -0.780035 0.186615 0.341808 0.516636
later 0.4229 0.0410551 0.284314 0.320603 -0.585031 0.00776194 0.0261848 0.488174 -0.414455 -0.332985 0.385007 0.212471 -0.675664 0.511295 -0.220297 0.217723 -0.566268 -0.446663 -0.253899 0.0779989 0.252735 0.265103 0.585406 0.763656 -0.0971984 -0.107883 0.46227 -0.0626114 -0.0546701 -0.479794 -0.181071 0.246475 -0.104859 -0.0127552 0.428852 -0.273057 0.280402 0.498683 -0.287664 -0.218708 -0.315215 0.25481 0.448062 0.245181 -0.116402 0.0824461 -0.91868 0.143162 0.244724 0.443861
known -0.0237223 0.346571 -0.307676 0.44696 -0.599085 -0.0152362 0.14823 0.223434 0.392322 -0.155043 0.724481 -0.0656379 -0.741889 0.0549826 -1.25791 0.0833532 -0.413023 -0.105362 0.647869 0.0669455 0.621509 0.0389901 -0.39017 0.217887 -0.238534 0.300358 0.979028 -0.239937 0.752277 -0.324988 -0.399671 -0.287075 -0.0958528 0.215248 -0.601785 -0.22207 -0.171623 -0.18474 -0.234998 0.125354 -0.54998 0.0607781 0.496592 -0.571765 0.568513 1.04216 0.170224 -0.470641 0.164412 0.651129
then 0.480538 -0.0651287 0.449495 0.00281188 -0.468534 -0.202038 -0.208814 0.15526 0.136032 0.196338 0.664598 0.0678551 -0.283354 0.285147 0.0481874 0.190435 -0.41854 0.0513047 -0.40036 0.436534 0.29968 0.809726 0.464843 0.463458 -0.078546 0.0865955 -0.137158 0.0444991 -0.152275 -0.489921 -0.084729 0.116382 0.073558 -0.167924 0.235958 -0.0690916 -0.332242 0.381366 -0.135138 -0.421559 -0.577904 -0.0213451 0.480889 0.121373 0.156214 -0.111487 -0.890747 0.126901 0.11118 0.619303
between 0.0335537 -0.0773057 0.294714 -0.129305 -0.274376 -0.139782 0.0546816 0.961949 0.325528 0.310629 -0.0482929 -0.200104 0.188583 0.506983 -0.523167 -0.239186 -1.0095 -0.0158797 -0.0956721 -0.113277 0.181682 -0.0712001 0.0616522 -0.0901064 -0.5053 0.64181 -0.406375 0.00576497 0.079974 -0.716509 -0.160632 -0.0908105 0.97186 -0.315995 0.067868 -0.0862911 0.339102 0.359787 0.270681 -0.562316 -0.651607 0.277529 0.50645 -0.0286885 -0.269691 0.220953 -0.744683 -0.140398 0.245189 0.293076
state 0.160839 -1.27271 0.0706944 -0.187111 -0.171538 -0.175552 -0.903121 0.0520996 1.482 0.295184 0.538885 -0.503172 -0.161141 -0.529247 -0.290084 0.542056 -0.605105 0.661301 0.203434 0.0190426 -0.0897202 0.39546 -0.442433 0.635261 -0.463277 0.788804 0.160724 -1.03997 -0.344528 -0.346649 -0.564837 0.829064 0.0972258 -0.2042 0.0649766 -0.186633 0.549233 0.568122 -0.259874 -0.0181809 -0.500858 0.0309532 0.558408 -0.520955 -0.00584511 -0.292075 -0.822587 -0.447121 0.0147368 0.112505
about 0.144105 -0.476899 -0.108142 0.4476 -0.234796 -0.578418 -0.47089 -0.0298482 -0.0656991 -0.210799 -0.529045 -0.627064 0.210036 0.342577 -0.209303 -0.00570469 -0.892335 -0.32569 -0.0106547 0.435479 0.249262 0.0237338 0.579543 -0.00703188 -0.373046 0.315668 0.769484 -0.171608 -0.00990384 -0.452283 -0.717465 0.162516 0.0188668 -0.252709 -0.214882 0.467066 -0.561525 0.371081 0.180611 -0.802504 -0.223148 -0.00453563 0.32191 -0.170442 -0.609658 0.388494 -0.910141 0.29629 -0.235719 -0.146681
under 0.673914 0.0522092 0.0678856 0.412721 -0.270302 0.0349173 0.294818 1.28962 0.722274 0.14347 -0.0771899 -0.0544588 -0.126355 0.0169187 0.22674 0.00460852 -1.04562 0.0351317 -0.101426 -0.0142376 -0.139698 0.19917 0.0594771 0.348045 -0.320108 0.47263 0.129459 -0.551892 -0.0963179 -0.55607 -0.606182 0.181382 0.274771 -0.351075 0.324143 0.11189 0.124411 -0.155289 0.165926 0.0659365 -0.338978 0.421838 0.525956 0.120885 -0.269391 -0.390937 -1.01598 0.348067 0.3415 0.100167
made 0.0740952 0.420968 -0.00185653 0.0227938 -0.174601 -0.524926 0.235919 0.298097 0.430936 -0.0696504 0.654117 0.0255356 -0.612442 0.0500688 0.05599 0.303779 -0.71318 0.495888 -0.160311 -0.0170573 0.174257 0.232329 0.278443 0.422238 -0.690415 0.0273783 0.868264 -0.378638 0.581911 -0.68517 -0.22564 -0.178946 0.368848 -0.221048 0.280162 0.445542 -0.126205 -0.42322 0.169285 0.131112 0.187784 0.262467 0.486253 0.393744 -0.150525 0.42538 -0.523529 -8.14511e-05 0.24086 0.0581427
three 0.216675 0.0884687 -0.014941 0.099179 -1.18485 -0.253659 0.0865121 -0.117699 -0.42502 0.0416687 -0.0301857 -0.246271 -0.562172 -0.39542 -0.147362 0.0433267 -1.05726 0.296351 0.0364675 0.150351 0.198645 -0.385007 0.3187 0.231066 -0.112796 -0.433115 0.133023 -0.248562 0.447483 -0.573126 -0.229062 0.0192354 0.660262 -0.129168 -0.19548 -0.366432 0.201672 0.281522 -0.216092 -0.486817 -0.510119 0.250861 0.404182 0.433624 -0.417671 -0.35195 -1.19463 -0.285766 0.145704 0.0878589
united -0.560375 -0.271594 -0.0101368 0.849634 -0.480421 0.262078 0.839116 -0.231772 0.929914 0.280816 0.744105 -0.795679 -0.593164 0.618577 0.0937804 0.215854 -0.0937447 1.09562 -1.27842 0.69469 0.152425 -0.0854985 -0.851771 0.568498 -0.683566 0.357986 1.47635 -1.36604 0.279968 -0.0788709 -0.0674411 0.51841 0.16442 -0.520919 -1.04324 -0.100465 0.736235 0.128372 0.198384 -0.189795 -0.713234 -0.423382 -0.33544 -0.640687 -0.667139 -0.0624289 -1.69683 0.468638 1.06628 0.662402
these 0.0409865 0.73258 0.336852 -0.696714 -1.03218 -0.597701 0.643784 -0.161839 0.24247 -0.280365 -0.483067 -1.00975 -0.317773 -0.230486 -1.04865 -0.0124775 -0.736195 0.482362 0.407112 0.0634332 0.497385 0.00920861 0.118434 0.55669 0.0551544 -0.283182 0.0453644 0.127443 0.0264882 -0.541457 -0.29502 -0.451813 0.206058 -0.121762 -0.208657 0.0835384 0.20411 0.421116 -0.115199 -0.395042 -0.626256 0.570338 0.471372 0.00854867 -0.436806 0.155249 -1.04836 -0.0814976 0.331465 -0.475568
than -0.334295 -0.156759 0.359497 0.483256 -0.219231 -0.718728 0.231275 -0.000712365 -0.212905 0.165325 -0.265857 -0.389372 -0.132971 0.327355 -1.09689 0.159904 -0.472001 0.180595 0.220894 -0.332661 0.73131 0.392458 0.180297 -0.0376538 -0.607309 -0.856043 0.878775 -0.304291 0.280214 -0.618245 -1.26256 -0.115257 0.861721 -0.111798 0.216566 -0.169126 -0.346213 0.290819 -0.305807 -0.225891 -0.512903 0.414003 -0.0405439 -0.699975 -1.21808 0.24842 -0.967149 -0.00264445 0.0802079 0.044011
university -0.17003 -1.67123 0.80264 0.371786 0.107255 0.782648 -1.15349 0.00913664 1.13366 0.211765 0.886143 -0.571045 0.156498 -0.603528 -1.28855 -0.342258 -1.02956 0.271252 -0.255641 1.13969 0.152293 0.553227 0.293753 0.174802 -0.782567 0.225476 1.333 -0.741766 -0.610389 0.160982 0.0873673 1.7924 -0.14926 0.541654 0.549362 -0.543281 -0.0368193 -0.295074 -0.722044 -0.804234 -0.346354 -0.0580254 1.63525 0.44133 0.286933 -0.61918 -0.802551 0.233766 0.23516 0.624512
part -0.317737 0.139598 -0.366 0.165667 -0.540056 0.408415 -0.178221 0.297531 0.278986 0.11002 0.23561 -0.274796 -0.40353 -0.0916524 -0.184818 0.152429 -0.540168 0.755475 0.301672 0.373276 0.181236 0.0795447 0.142784 0.338841 0.121202 0.69155 0.21403 -0.628165 0.0910652 0.595181 -0.451897 0.296736 -0.023335 -0.547091 -0.816294 -0.53868 -0.0328819 0.464352 -0.127663 -0.617699 -0.265573 0.224345 0.643059 -0.162108 -0.0945666 0.203087 -0.439592 -0.112477 0.270219 0.325033
while 0.0833272 -0.250778 0.291343 0.29552 -0.352077 -0.37596 0.145452 0.398066 0.284462 0.00542032 0.220397 -0.0393332 -0.301741 0.286876 -0.376331 0.0588492 -0.513925 0.00880581 0.0309026 -0.116397 0.362926 0.290618 0.347148 0.264383 -0.133991 -0.113563 0.0200621 -0.0987566 -0.246925 -0.80505 -0.17434 0.0411203 0.329387 -0.063465 0.0436008 -0.0665036 -0.181276 0.145576 0.37364 -0.258018 -0.544256 -0.119181 0.176707 0.154011 -0.33894 0.273314 -0.886202 0.247676 0.0945468 0.174
no 0.413999 0.188388 0.201884 -0.131894 -0.640249 -0.697101 0.0914307 0.21179 -0.0982933 -0.0575351 -0.173643 -0.887623 -0.0293912 -0.855512 -0.369238 0.7996 -0.461864 -0.192768 -0.235883 -0.327651 0.226566 0.548836 0.681056 0.66367 -0.253697 -0.132386 0.559224 -0.179301 0.274844 -0.438538 -0.499557 -0.180034 0.122518 -0.56939 -0.253965 0.329449 0.0146745 0.458982 0.318493 -0.225901 -0.141768 0.398659 0.230069 -0.371206 -0.40568 0.548929 -0.699461 -0.181125 0.61213 0.237214
national -0.187595 -0.313513 -0.110665 0.00961042 -0.598571 0.413738 -0.456042 0.0386418 1.39567 0.415218 0.0514408 -0.55989 -0.141914 -0.258489 -0.500547 -0.0609387 -0.844514 0.452596 0.235824 -0.954584 -0.386126 -0.150429 0.407436 0.0569665 -0.594212 0.552881 0.759234 -1.41539 0.189453 -0.143521 0.343931 0.523827 0.218561 0.0501111 -0.580227 -0.0471139 0.243117 0.503292 -0.381131 0.728005 -0.244177 -0.329574 0.221369 0.207826 0.480847 0.203046 -1.36006 -0.198803 0.00768561 0.271853
well -0.11966 0.495872 -0.181779 0.118496 -0.955985 -0.192439 0.11185 -0.169471 0.216541 -0.0586232 0.34636 -0.407719 -0.415368 0.168267 -1.2685 0.0626895 0.0540467 0.192588 0.605123 0.00988324 0.682624 0.368432 -0.0404162 0.199354 -0.111898 -0.169348 0.63407 -0.106078 -0.0194313 -0.146301 -0.512095 -0.0692064 0.0283504 0.419818 -0.343795 -0.589323 -0.0284179 0.396312 -0.250656 0.162171 -0.766298 0.096277 0.0616002 0.103211 0.221095 0.867625 -0.180902 -0.509165 0.399072 0.326317
however -0.157366 0.161428 0.531636 0.0773593 0.031027 -0.345333 0.179177 0.401887 -0.0271832 -0.129832 0.0825318 -0.032205 -0.223266 0.381707 -0.588399 0.299131 -0.525764 0.131058 -0.291118 -0.415202 0.306003 0.596233 0.303373 0.64365 0.165214 -0.0186125 0.179487 -0.0682006 -0.0427246 -0.859642 -0.606691 -0.000905837 0.0838159 -0.531662 0.0441852 -0.105005 0.0161332 0.207941 0.0238707 -0.107074 -0.287026 0.15022 0.344617 -0.129019 -0.383677 0.621539 -0.87204 0.0114456 -0.0168307 0.299149
became 0.64698 -0.380627 0.316248 0.25175 -0.479684 0.500368 -0.0616378 0.793596 -0.00268991 -0.356455 1.17297 0.295626 -0.424658 1.20411 -0.385425 -0.238137 -0.606188 -0.200656 0.362311 -0.588991 0.314559 0.321722 0.334476 0.0321376 -0.155523 0.0798634 0.943896 -0.909563 -0.197411 -0.373087 -0.249929 0.228389 0.265013 0.141871 0.60192 -0.463372 0.183366 0.00949919 -0.377031 0.145669 -0.0342036 0.532535 0.00900028 -0.208241 0.018575 0.268677 -0.68727 -0.00734143 0.230421 0.503643
american 0.110755 -0.327861 0.330032 1.39171 -0.761215 0.595392 0.979096 -0.468086 1.77915 -0.0458963 0.285601 -0.0734915 -0.417567 0.557942 -0.0537227 0.626504 -0.341715 -0.0926922 -0.0240289 0.0650818 0.261019 -0.864473 -0.392376 -0.0831506 -0.302149 0.183454 1.57195 -0.705794 0.232515 -0.481034 0.370172 0.676453 0.333335 0.186435 -0.357916 0.0271725 0.0123168 0.566231 0.664318 0.0119221 -0.0997324 -0.353089 0.115236 -0.367739 0.081012 0.256848 -1.2394 0.433746 0.778952 -0.379167
states -0.08091 -0.999395 0.51819 -0.440427 -0.648246 0.193764 0.120534 -0.0911628 1.48825 -0.731824 1.07623 -0.546559 -0.441931 0.524622 0.305698 0.363293 0.146088 0.525254 -0.416717 0.0342472 0.222298 0.843562 -1.17522 0.131637 -0.924027 0.213283 1.23185 -0.780749 -0.0822202 0.417053 0.235729 0.363838 0.206042 -0.538886 -0.945781 0.0470796 0.547126 -0.0850085 0.554541 -0.154247 -0.850894 0.354491 0.15918 -0.959988 -0.829992 -0.0995647 -1.64565 0.474534 1.06372 0.328414
south -0.543642 -0.778524 -0.220643 0.306307 0.101562 0.34076 -0.341403 -0.0297722 1.19829 -0.0296622 0.234618 0.26588 0.347468 0.660583 0.0233992 -0.393258 -1.73631 0.897935 0.0982001 1.32866 0.531067 -0.0543244 0.740825 0.504811 -0.746034 0.245256 0.55513 -0.336937 -0.26083 0.805676 -0.235128 0.421686 0.313672 -0.173563 -1.29867 -0.325189 0.426853 0.971829 -0.0304962 -0.304487 -0.476149 0.222076 0.00180549 -0.399462 0.853336 0.0791976 -1.20846 -0.871259 0.161122 0.734365
being -0.163234 0.205983 0.318265 0.240498 -0.521915 -0.265442 0.190133 0.290513 -0.139274 -0.195855 0.127993 -0.178457 -0.0842378 0.0357394 -0.291283 0.0254349 -0.340727 0.15104 -0.00774704 -0.0404987 0.418206 0.480851 0.543768 0.410403 0.298543 0.126669 0.385484 -0.0855126 -0.133101 -0.358782 -0.634591 0.24369 0.0780757 -0.360954 -0.078857 -0.145683 -0.0155548 0.548302 0.0869898 -0.0836965 -0.594777 0.0866292 0.116608 0.214584 -0.295104 -0.0965949 -0.625704 0.0300345 0.207228 0.142429
war -0.0122065 -0.14111 -0.90988 0.180418 -0.132126 0.155655 0.367412 0.795235 0.324687 -0.960916 0.247191 -0.0327929 -0.252127 1.23559 0.373919 0.412789 0.439354 0.723282 0.512052 -0.197201 0.0422168 0.313766 0.468598 0.162092 -0.434774 0.158263 1.27351 -0.845376 -0.0987101 -0.637797 0.0421241 0.144757 0.275778 -0.284038 -0.336374 -0.837935 1.6225 1.85386 0.207155 -0.108912 -0.299968 0.662753 1.39482 0.0630329 -0.653526 0.199051 -1.072 1.00666 0.763916 0.842901
born 0.047585 -0.469531 -0.494452 1.12474 -1.4175 0.53732 -0.552924 0.785542 0.756406 -0.0769586 2.03049 0.237057 -0.678339 -0.367803 -0.330926 -0.598039 -0.635647 -0.284851 -0.559062 0.497237 0.488245 -0.120653 0.322552 0.595039 -0.720071 0.630091 1.74262 0.213987 0.87809 0.0576174 0.00972461 0.614085 -0.122753 0.268979 0.0323751 -0.169318 0.437106 -0.245198 0.199085 -0.140149 0.141015 -0.359181 0.953374 0.691139 1.61862 1.4969 -0.339949 0.115433 0.473935 0.91931
through 0.278686 0.00649811 0.384041 0.214377 -0.178099 -0.3845 -0.176061 0.483715 0.621461 0.533819 -0.392486 -0.451265 -0.254977 0.652366 -0.0920953 -0.0800546 -1.00174 0.000408803 0.227666 0.0925368 0.611165 0.0495643 0.138272 0.11168 -0.419843 0.294443 -0.448301 -0.27633 -0.697446 -0.653454 -0.0957853 0.103879 0.400064 -0.31115 0.274931 -0.237692 -0.136993 0.230819 0.323532 -0.40056 -0.469904 -0.0564795 0.255283 0.0099881 -0.465869 -0.082176 -0.952838 0.150889 -0.175889 0.357236
both -0.0405234 0.169453 0.356342 -0.0671868 -0.678155 -0.400182 0.386343 0.200134 0.189107 0.00227777 0.180536 -0.30135 -0.0609203 -0.218811 -0.43291 0.00874164 -0.609081 0.283065 -0.0763247 -0.00868413 0.451538 0.034063 0.148977 0.204152 -0.182557 -0.0799904 -0.0368519 -0.102588 -0.0945048 -0.281654 -0.0200702 -0.132958 0.507471 0.0641306 -0.0281191 -0.0769281 0.146358 0.225811 0.115372 -0.365845 -0.419393 0.299899 0.41237 0.25518 -0.0119962 0.253485 -0.70646 -0.251826 0.365836 -0.110529
north -0.32367 -0.643648 -0.0887581 0.223132 0.21486 0.599754 -0.276207 0.221134 0.877886 0.0396722 0.410672 -0.0273911 0.162695 0.494357 -0.0941751 -0.136009 -1.80343 0.82904 0.20355 1.32011 0.83634 -0.0452704 0.359583 0.155008 -0.720124 0.166519 0.469559 -0.366044 -0.255566 0.786469 -0.125553 0.214602 0.114344 -0.190401 -1.13625 -0.553033 0.430461 1.15546 -0.0609986 -0.600705 -0.499168 -0.092544 -0.176701 -0.348449 0.513036 0.18722 -1.16367 -0.721875 0.164848 0.547394
second -0.00695026 0.225224 0.0333556 0.528778 -0.749359 0.392943 -0.258757 0.115612 0.12071 0.193099 0.335164 0.245295 -0.64781 0.196725 0.406879 0.132791 -0.829904 0.448223 -0.329079 -0.0234958 0.0814816 -0.00407405 0.32167 -0.133838 0.21048 -0.187425 0.0988568 -0.703507 0.626753 -0.468054 -0.342861 0.403714 0.276676 -0.555126 -0.052251 -0.717615 0.196066 0.254117 0.388729 0.0393622 -0.210038 -0.104498 0.719812 0.121706 -0.339486 0.310699 -0.936376 0.223638 -0.397935 0.521881
area 0.012357 -0.348216 -0.578084 -0.0529304 0.691772 0.424755 -0.334154 0.633817 0.538832 0.228854 -0.363706 -0.576674 -0.586595 0.152856 -0.797064 -0.335875 -1.14979 0.68873 0.500482 0.850647 0.241101 0.877289 0.016165 0.169638 -0.383893 1.15045 0.636824 -0.247207 0.174225 0.390097 -0.74783 0.614683 0.266081 -0.259696 -0.996298 -0.229574 -0.359769 0.673907 -0.116547 -0.47674 0.115023 -0.22538 0.0488577 -0.451065 -0.689321 0.0328705 -0.791551 -0.331593 0.521657 0.123486
before 0.2515 -0.213842 0.340025 0.140518 -0.194188 -0.2479 -0.134447 0.335625 -0.0235053 0.158374 0.382291 0.176759 -0.414235 0.76222 -0.0720293 0.209852 -0.673681 -0.249969 -0.395878 -0.183276 0.214129 0.383663 0.610607 0.700946 -0.256484 0.0999218 0.107464 -0.138168 -0.234352 -0.840455 -0.382547 0.361777 0.131952 -0.522022 0.100429 -0.557793 0.077169 0.230999 0.0455702 -0.37157 -0.434492 -0.123822 0.146664 0.217427 -0.490955 -0.0473284 -1.11683 0.371494 -0.0676824 0.879995
including 0.440356 -0.0656429 0.272436 0.0366682 -0.884797 -0.238484 0.288415 0.578922 0.49024 -0.325634 0.00701157 -0.288409 -0.480099 0.503127 -0.712471 -0.689956 -0.994536 -0.0247426 0.321327 -0.333789 0.385936 -0.668834 -0.0696923 -0.248833 -0.83201 0.212 0.543286 -0.562402 -0.380212 -0.288963 -0.267688 -0.417855 0.877113 0.042285 0.00640211 0.187807 0.196908 -0.219144 0.41593 0.000515268 -0.268983 0.129884 0.135683 0.62639 -0.493352 -0.316255 -1.02226 -0.391851 0.320714 -0.257861
high 0.517919 -0.261965 0.0254563 0.0133824 -0.251801 -0.489208 -0.372057 0.533406 1.01076 0.492034 0.181941 -0.326751 0.118481 -0.192555 -0.938967 0.0753226 -0.877159 0.366105 0.104162 0.29762 1.03513 0.879761 0.127735 -0.0539103 0.349698 -0.74097 0.0520779 -0.736364 0.516154 -0.569552 -0.722128 0.781788 0.181964 1.14939 -0.251945 -0.369583 0.210291 -0.223644 0.795921 -0.322197 -0.0254703 0.208353 0.200527 0.537447 -0.141716 0.29967 -0.375867 -0.225998 0.585324 0.0457985
them 0.241122 0.194662 0.377199 0.0619063 -0.633424 -0.875104 0.55233 -0.182151 -0.0068729 -0.721174 0.0509775 -0.665768 0.142283 -0.411069 0.394523 0.245433 -0.605112 0.870103 0.0777263 0.276334 0.602549 0.955756 0.410025 0.69887 -0.160349 0.0552044 0.539404 0.52944 -0.545427 -0.298084 -0.176826 -0.508308 0.559458 -0.266108 0.190011 -0.0269627 -0.0927368 0.396179 -0.140293 -0.728666 -0.238782 -0.0274912 0.596551 0.210324 -0.226039 -0.205884 -0.926266 0.19526 0.355109 -0.380037
people -0.177518 -0.595935 -0.654047 0.00401221 -0.570404 -0.636505 -0.396888 -0.179148 0.409931 -1.11706 -0.611166 -0.397671 0.271994 -0.337489 -0.26991 -0.642497 -0.89136 0.345339 0.226553 -0.0293781 0.291684 1.10031 0.149159 0.460428 -0.296088 0.500057 1.20408 -0.258415 -0.436557 -0.180671 -0.376871 -0.138202 0.224788 -0.366155 -0.363599 -0.0383034 -0.282272 0.504539 -0.0955078 -0.541626 -0.0930494 0.360221 0.32961 -0.488757 -0.126085 -0.0131918 -0.623785 0.634666 0.0455412 -0.73167
team -0.475925 0.274443 0.388587 1.20832 0.693558 0.219837 -0.162879 -0.154491 0.0667045 -0.104043 0.761645 0.176206 -0.0191194 -0.790097 -0.201963 0.358275 -1.05045 0.650697 0.0194997 -1.09775 0.478581 1.0033 -0.35978 0.388615 0.255151 0.258441 1.30174 -0.0467959 -0.217592 -0.5376 0.766891 1.06313 0.912516 -0.16757 -0.727453 -0.928221 -0.0353875 0.633845 -0.247594 0.428755 -0.680942 -0.185983 1.40351 1.40999 0.484416 -0.528217 -1.50803 -0.102045 -0.0186903 0.641019
will 0.146206 0.417381 0.265719 -0.61845 0.00317063 -0.884996 -0.940255 -0.167027 0.567354 0.0543792 -0.713156 -0.598605 -0.270113 0.134121 -0.169309 0.512322 -0.482339 -0.0408535 -0.510154 -0.683504 0.874191 1.44941 -0.0323657 0.14562 -0.588628 -0.245383 -0.0993155 -0.491158 -0.475566 -1.05507 -0.0708514 -0.285613 0.787286 -0.81748 -0.184266 -0.0287985 -0.275908 -0.678932 0.299361 -0.161204 -0.915873 0.0453336 0.763632 -0.0740162 -0.346378 0.289713 -0.942701 -0.0169807 0.213129 0.635945
name 0.15015 0.472907 0.392571 0.748685 0.0258741 0.943149 0.100353 0.546202 0.393826 -0.699268 0.212908 0.271351 -0.262727 -0.025594 0.402594 0.0356407 -1.07251 -0.363396 0.17331 -0.214754 0.509204 0.810098 0.0786147 0.662321 0.373863 1.14817 0.729598 -0.409671 0.235993 0.400276 -0.403409 0.265038 -0.350294 -0.165072 -0.10189 -0.0710833 -0.345796 0.148252 -0.257448 -0.52897 -0.996163 0.168388 0.724313 -0.776713 -0.266151 0.514012 0.187383 -0.314051 -0.140055 0.65831
early -0.0112492 0.355915 0.262342 0.328738 -0.502461 0.466845 0.267004 0.311872 0.268757 -0.270848 0.556465 0.0715768 -0.656076 1.08071 -0.780868 -0.209142 -0.5729 -0.283964 0.31675 0.0073117 0.495529 -0.138026 0.415044 0.690688 0.218441 0.211815 0.628556 -0.274214 0.469517 -0.211879 0.074989 0.587366 0.0355832 0.385619 0.304659 -0.424156 0.61707 0.373362 0.152486 -0.190477 0.358928 0.413706 0.299864 0.163494 -0.343941 0.506057 -0.60548 0.361541 -0.152232 0.111812
family -0.829808 -0.093808 0.67413 0.936844 -0.715834 0.601852 -0.202023 1.32124 0.180181 -0.815257 0.913558 0.0268136 -0.584519 -0.408858 0.842628 -0.871948 -0.276484 0.0466994 0.233779 0.489549 0.561787 0.503139 0.262887 0.708935 -0.207459 0.982319 0.838441 -0.370122 -0.0154082 -0.451377 -0.355748 0.191944 0.413461 0.69641 -0.414578 0.772156 -0.453039 -0.185739 -0.324394 -0.756187 0.00802912 -0.387409 0.420284 -0.963353 -0.294532 0.499038 -0.506007 0.120801 0.0484072 -0.272383
since -0.149631 -0.040468 0.322797 -0.0239419 -0.264259 -0.0886402 -0.537415 0.289221 -0.141933 0.0938095 0.074333 -0.103541 -0.451186 0.335132 -0.872743 0.0336869 -0.721218 -0.467197 -0.311551 -0.670692 0.18739 0.451605 -0.0666907 0.570607 -0.484033 0.0268383 0.334837 -0.773395 0.171998 -0.419584 -0.253845 0.391088 0.0721736 -0.331307 -0.310221 0.0366011 -0.0487237 -0.00991242 -0.332141 0.143282 -0.561734 0.177005 0.333439 0.0965742 -0.361309 0.409408 -0.675413 0.307963 0.259602 0.371079
until 0.2646 -0.0400147 0.347934 -0.352479 -0.10079 0.345661 -0.253343 0.702536 -0.06579 -0.0224192 0.745583 0.156643 -0.785396 0.827255 -0.127758 0.247002 -0.583418 -0.473229 -0.173036 -0.186803 0.0405856 0.68274 0.58754 0.892418 -0.132363 0.050144 0.154483 -0.556579 0.0389985 -0.819578 -0.225739 0.47209 0.106966 -0.121584 0.245713 -0.20526 0.342035 0.399579 -0.267848 -0.325326 -0.410123 0.262855 0.0763257 0.017386 -0.29237 0.10223 -0.968205 0.41484 0.0760045 0.838726
film -0.322487 1.52111 -0.915001 1.33502 0.278124 -1.37612 -0.766165 -0.324459 1.08474 -0.71147 -0.114551 0.845582 -1.11468 1.17367 -0.0463658 0.346157 0.0586176 0.0116518 -0.73357 0.105639 -0.263721 0.681968 0.369907 -1.00818 -1.2723 1.65833 0.806449 0.0934199 -0.207372 -0.0614739 -0.833492 1.28584 -0.403327 0.411583 -0.194139 -0.340388 -0.802971 0.226391 0.32879 -0.83311 0.1462 0.212109 1.51063 0.411079 -0.705054 0.265904 -1.19695 -0.251641 1.61458 -0.395099
history 0.329566 -0.0432826 0.237048 0.0533082 -0.148922 0.777987 -0.188955 0.210507 0.455948 -0.229802 0.0764223 -0.449055 -0.0136743 0.367493 -0.503344 0.0723214 -0.991097 0.119503 0.493381 -0.0682801 0.32066 -0.326278 0.134045 0.42935 -0.258352 0.544675 0.717714 -1.02156 0.209651 0.34301 -0.143138 0.690506 -0.361195 -0.362863 -0.362517 -0.24306 0.234046 0.377935 -0.115303 -0.226538 -0.0736561 0.210796 0.848889 0.155404 -0.180673 0.134183 -0.349576 -0.0272546 0.107402 0.208891
called 0.644003 0.313126 -0.043194 0.228511 -0.303393 -0.146334 0.0246302 -0.0365358 0.402098 0.0631344 0.167487 0.200355 -0.659871 -0.0131284 -0.649864 0.0690998 -0.777954 -0.21266 0.124646 0.0612163 0.475222 0.337079 -0.00162813 -0.0497912 -0.308168 0.537942 0.124918 -0.394296 0.318383 -0.734921 -0.065926 -0.392204 -0.0424519 -0.373038 -0.266067 0.155623 -0.322861 -0.0544909 0.00325462 -0.0301801 -0.521066 0.279745 0.374259 -0.380645 0.363164 0.646793 -0.14278 0.198063 0.0324365 0.446157
county -0.235302 -1.78371 -0.40814 -0.720617 0.548432 0.242005 -0.192335 0.919446 0.776375 0.687299 0.327066 0.022588 -1.19577 -1.06706 0.363549 0.0921578 -0.835212 0.470943 -0.431513 0.0632476 1.26479 0.328829 -0.087388 1.12117 -1.50023 1.51019 1.15628 -1.22158 0.301133 0.313741 -1.08219 0.559085 0.0720473 0.492711 -1.10209 -0.669758 -0.0794964 1.1747 0.0180016 -0.401079 0.492767 -0.0241702 0.358534 -0.417439 -0.347921 0.259493 -1.08476 -1.17035 0.382022 0.899426
series -0.847384 1.34185 0.440744 0.44055 -0.66006 -0.0681823 -0.617118 -0.226096 -0.160628 -1.0525 0.625798 0.334413 -1.04651 0.176342 -0.252621 0.427211 -0.568599 0.406724 0.00327731 -0.0784856 0.69541 -0.850389 -0.155846 -0.520836 0.265825 -0.203012 0.157019 -0.376766 -0.396311 -0.319764 0.0222026 0.857676 0.352498 -0.673581 -0.272451 -0.333607 -0.0576295 0.928145 0.266545 -0.630043 -0.666432 0.287111 1.30752 0.644676 -0.0500278 0.0226688 -0.893316 -0.466176 -0.0513252 0.0202326
season -1.22796 0.686871 0.256969 0.455909 0.556194 0.927406 -1.11608 -0.635287 0.103994 -0.352866 1.28086 0.294609 -0.877688 -0.0448278 0.350957 0.757167 -1.13356 0.404976 -0.160404 -0.530247 0.357295 0.763807 -0.162565 0.621981 0.638858 0.0538953 0.866325 -0.155693 0.0863229 -0.960525 -0.587359 1.41803 1.91265 -0.698707 -0.587844 -1.52045 0.06907 0.587187 0.157655 -0.572096 -0.402985 -0.191457 0.955365 1.57821 -0.430995 0.530529 -1.10894 -0.820229 -0.301219 0.589758
album -0.624054 1.44277 -0.739445 1.25463 -1.04713 -0.54506 0.291952 -0.659387 0.211859 -0.0490142 -0.0756265 0.210987 -1.80311 -0.25242 0.873728 0.465311 -1.99155 -1.09449 -0.375328 0.384629 0.432751 1.75525 0.580739 -0.321305 -0.786557 1.08514 0.921232 -0.174594 -0.149118 0.93623 0.10499 1.32445 0.688915 -0.386513 1.07865 -1.44048 -0.155828 -0.045322 1.11015 1.44848 -0.323627 0.00381642 0.809007 -0.518686 -1.36111 1.77717 -1.06041 0.0123739 -0.0122888 -0.172577
work -0.216465 0.636937 0.187952 -0.0418631 -0.907336 -0.0374134 -0.232997 -0.265602 -0.0354476 0.154085 -0.107646 -0.490807 -0.523024 0.66634 -0.343633 0.156587 0.348842 0.527197 0.505822 0.194247 0.663638 0.265969 0.805536 0.167003 -0.475377 0.419406 1.07281 0.378105 -0.445634 0.16655 0.0177807 0.761232 -0.016798 0.600016 0.904345 -0.302405 -0.0370596 0.0111001 -0.154332 -0.00652784 -0.287078 0.338174 0.984503 0.223741 -0.0355046 0.431107 -0.536992 0.385183 -0.197333 0.238114
several 0.161849 0.158114 -0.0195596 -0.176955 -1.10763 -0.48757 0.349905 -0.0704172 -0.277057 -0.157946 0.0974431 -0.636256 -0.546117 0.0941889 -1.01438 -0.246317 -0.487071 -0.0789544 0.339568 0.115942 0.312239 -0.405175 0.21232 0.668572 -0.340025 -0.141357 0.256403 -0.142028 -0.102392 -0.254469 -0.114014 -0.12719 0.192635 0.0751964 -0.122434 -0.0267464 0.288389 0.587796 -0.224992 -0.537191 -0.424063 0.0984116 0.229115 0.621079 -0.362266 0.034925 -0.929804 -0.257436 0.486385 -0.328594
music -0.239009 0.730587 0.0889699 0.811819 -1.31656 -0.462198 0.614078 -0.447429 0.630948 -0.155439 0.276207 -0.36064 -1.15493 -0.0111885 -0.817435 0.322767 -1.26571 -0.406135 0.0954684 0.433467 -0.411542 1.6874 0.341572 -0.370202 -1.41146 0.800479 0.416521 -1.229 -0.871808 0.821844 0.194201 1.27922 -0.105764 0.729605 0.74324 -1.04539 -0.653654 -0.559759 0.626233 -0.340181 0.268048 0.663617 0.415937 0.238319 -0.257954 0.738359 -0.136241 -0.103875 0.118518 -0.792417
against -0.0358191 -0.647742 0.759448 0.194126 0.081763 -0.713887 0.798679 0.766099 0.931318 -0.050504 0.532197 0.546503 0.0392843 -0.150267 -0.102244 -0.439055 -0.353799 0.568391 -0.391648 -0.631083 0.273299 0.431806 0.349241 -0.11839 -0.380106 0.300672 0.396424 -0.260216 -0.448052 -1.11358 -0.262217 -0.186313 0.659456 -1.30701 -0.0148454 -0.0641828 0.635181 0.696023 0.319187 0.525637 0.285418 -0.0533103 0.986493 1.07166 -0.0333903 0.506296 -1.29151 0.302588 0.109347 0.574126
group 0.295011 0.464808 0.0708425 0.823206 -0.899954 0.518797 0.814254 -0.179292 -0.257098 0.0512551 -0.154119 -0.134422 -0.260934 -0.149935 -0.209605 -0.707364 -0.953056 0.209201 -0.00879631 0.0220796 0.0263776 0.538302 -0.383392 -0.183763 0.635407 0.641666 0.228083 -0.113477 -0.525511 0.494254 0.68857 0.224089 0.654422 -0.0462864 -0.698614 0.119176 -0.51619 0.291331 -0.389906 0.0422709 -0.406631 0.441641 0.717729 -0.341169 -0.319479 0.388346 -1.32661 0.493754 0.416072 0.392721
number -0.350018 0.452512 0.016274 -0.27552 -1.43752 -0.00621954 0.483297 -0.359077 -0.215818 -0.423696 -0.0225212 -0.474619 -0.179284 -0.459949 -0.560737 -0.496754 -0.716339 0.77634 0.272837 0.155672 -0.0159795 0.153589 0.0899725 0.0113504 0.377894 -0.19843 0.574999 -0.542957 0.617887 0.507258 -0.372202 0.417257 0.270604 -0.238996 -0.139722 -0.187079 -0.426712 0.409198 0.219756 -0.391927 -0.372306 0.213841 0.357049 -0.0806424 -0.966272 -0.00139775 -1.12023 -0.0484697 0.0207874 -0.045347
life -0.381249 0.0142635 -0.124366 0.465251 -1.14354 -0.12608 -0.500037 0.407387 0.108267 -0.467615 0.68431 -0.679501 -0.209864 0.148074 0.30718 -0.285645 0.419736 -0.0996441 0.49608 0.100801 1.01036 0.0777867 0.886046 0.184112 0.0200065 0.286133 0.984854 -0.197184 -0.34137 -0.195763 -0.250992 0.864714 0.0714648 0.189383 0.567371 -0.282345 0.0728928 -0.0169767 0.104352 -0.260779 0.162065 -0.0362068 0.708387 0.0420745 -0.170386 0.6454 -0.208179 0.487 0.149019 0.117512
so -0.000759398 0.12967 0.625731 -0.237625 -0.258436 -0.572014 -0.160067 -0.0960993 -0.0149682 -0.292147 -0.0200747 -0.0977488 -0.14414 0.216807 -0.318453 0.613484 -0.413457 0.176898 0.116887 -0.256114 0.510277 1.2758 0.448008 0.258969 -0.189045 -0.314038 0.363401 0.239129 -0.0490053 -0.63677 -0.570587 -0.240474 0.015962 -0.305797 0.0712085 -0.149317 -0.687983 0.343906 -0.0108595 -0.047171 -0.385562 0.135732 0.305656 -0.46173 -0.195599 0.628061 -0.742926 0.245617 -0.0194083 0.436707
company 0.136539 1.04416 0.302392 0.362644 -0.235418 0.556642 0.0752815 0.660262 0.174842 0.204908 -0.143302 0.17401 -0.725063 0.857336 0.65112 -0.121357 -0.303032 0.211661 0.584084 0.229102 0.451917 1.13732 -1.25465 -0.0166276 -0.351863 0.507975 0.867224 -0.889119 -0.410267 0.123227 0.567686 0.307552 -0.587689 0.301812 0.616127 0.659096 -0.826703 1.02966 -0.275342 -0.520911 -0.142548 0.782203 0.71207 0.217205 -0.207959 0.170665 -1.24917 -0.513252 0.842078 1.12231
west -0.128748 -0.57783 -0.0680797 0.199221 -0.0611378 0.45412 -0.307306 0.185105 0.718449 0.0260665 0.192166 0.370896 0.39533 0.60375 -0.0223646 -0.0685641 -1.48543 0.80826 0.160447 1.32041 0.637947 0.0341647 0.423094 0.05998 -0.808176 0.564828 0.326649 -0.258808 0.0480949 0.724584 -0.32562 0.491406 0.469642 -0.0341571 -1.05799 -0.701685 0.322816 0.936399 -0.0753659 -0.528535 -0.101259 -0.0688191 -0.033 -0.211207 0.475124 0.294233 -1.1793 -0.862714 0.321755 0.928418
now -0.0282273 0.164325 0.249992 0.0938267 -0.203846 -0.0577903 -0.291651 0.255802 -0.18514 -0.133213 -0.0741883 -0.303195 -0.218466 0.0739022 -0.534744 0.238488 -0.762285 -0.148715 0.131105 0.358657 0.404002 0.545887 0.0721709 0.69698 -0.372718 0.251906 0.179831 -0.665211 -0.101332 -0.24021 -0.107278 0.126131 -0.309106 -0.102937 -0.40641 -0.0272275 -0.533046 0.366124 -0.21845 -0.0782567 -0.608107 -0.0726276 0.2194 -0.2007 0.233612 0.374189 -0.343768 -0.037649 0.470039 0.668044
de 1.00486 -0.168105 0.309904 0.455589 0.162308 0.996881 0.232518 0.696205 0.351339 0.0944484 0.107447 -1.14873 -1.19155 0.124238 0.171698 -1.16407 -0.0137544 -0.819785 0.251629 -0.127501 -0.539117 0.249742 1.06443 0.294731 -0.829967 0.319462 0.303891 -0.191771 0.723271 -0.32977 -0.330597 -0.250268 0.464691 -0.865281 0.565559 -1.10128 -1.01376 0.554091 0.33449 0.172686 -1.23342 1.1459 1.2575 -0.129183 1.53976 0.624581 -1.14741 -0.549101 0.837986 -0.393407
age -0.38056 -0.168645 -0.175026 0.730961 -0.873189 -0.130723 -0.302339 0.61045 0.553489 -0.689762 0.838501 -0.462204 -0.198803 -0.56488 0.491236 -0.487528 -1.05368 -0.0578206 0.468929 0.114662 0.773244 0.574343 0.545922 0.894026 -0.0464097 0.512627 1.69776 0.279877 1.03562 0.103214 -0.630422 1.06255 0.813923 0.530142 0.609115 -0.876825 0.426051 -0.496667 -0.22279 -1.17623 0.654854 0.279438 0.888853 -0.217849 -0.549974 -0.841398 -0.356013 0.767887 0.482856 -0.459883
town 0.0359562 -0.465085 -1.10835 0.0384539 0.493698 0.461922 -0.686983 0.559158 0.270484 -0.248404 0.14692 0.039442 -0.468844 0.125131 0.2766 -0.581534 -1.08192 0.74647 0.295514 1.01602 0.246918 1.3653 0.330362 0.892928 -0.635817 1.76294 0.937591 -0.765275 0.294058 -0.100497 -1.06008 0.473416 0.179193 -0.371987 -0.70724 -0.811526 -0.824977 1.12486 -0.177926 -0.606238 0.572138 -0.649813 0.469008 -0.292865 0.0644468 0.00765719 -0.117623 -0.250823 0.430508 0.482739
played -0.32454 0.0958198 -0.138532 0.167521 -0.589695 0.276212 0.356534 -0.537423 0.0354223 -0.303327 2.06305 0.872896 -0.991618 -0.56855 -1.00469 0.798096 -0.81776 0.314293 0.164571 -0.538252 -0.0156008 0.62434 0.112018 0.143435 -0.891448 0.75956 1.12037 -0.449831 0.385964 -0.723359 0.345076 0.0574224 1.44221 -0.385029 -0.615892 -0.942413 -0.180457 -0.844714 0.471078 0.105658 0.606303 0.114291 1.00259 1.11939 0.542667 0.747108 -0.616281 -0.731185 0.454082 0.577275
game -0.956372 0.816431 0.485191 0.788197 0.72119 0.467551 0.560365 -0.973847 0.0819806 -0.531972 0.619576 0.514209 -0.641405 -1.06694 -0.851869 1.0317 -0.671697 0.533393 0.280682 -0.636165 0.791446 1.56283 0.198978 -0.368899 -0.738175 0.289096 0.659475 -0.786761 0.119215 -1.18021 0.0839098 1.11536 0.279869 -1.52994 0.0898779 -1.0871 -0.128225 0.985519 0.740075 -0.0135744 0.396373 -1.08081 1.71491 1.70208 -0.294402 -0.243404 -1.14295 -0.804205 -0.0787474 -0.142674
use -0.123244 0.818547 0.434147 0.0493764 -0.0196176 -0.110826 0.652728 -0.129143 0.702099 0.00336497 -0.0201629 -0.436701 -0.404314 0.206754 -0.654262 0.309983 0.0235869 0.95852 0.536072 0.0556869 0.821767 0.765875 0.218607 0.334875 0.399453 0.414839 1.09905 -0.404732 -0.175275 0.0190758 -0.194253 -0.411415 -0.228853 -0.226477 0.0467339 0.104998 0.251938 -0.0123952 0.569832 -0.387497 -0.803394 0.557606 0.397909 -0.476646 -0.582366 -0.337606 -0.337164 -0.371512 -0.41025 -0.296857
four 0.214134 0.0765706 0.0118869 0.220728 -1.1924 -0.272891 -0.00357152 -0.204119 -0.501671 0.128098 -0.0589519 -0.246534 -0.653089 -0.490051 -0.0951046 0.151297 -1.1175 0.338374 0.0147805 0.190162 0.228156 -0.500992 0.340511 0.210401 -0.0575745 -0.664407 0.225188 -0.402193 0.528857 -0.521223 -0.174129 0.00819309 0.750741 -0.106912 -0.133872 -0.448977 0.351299 0.348538 -0.271049 -0.43916 -0.595176 0.364036 0.302948 0.381199 -0.470338 -0.571491 -1.16942 -0.332565 0.116666 0.144062
population -0.617611 -0.637436 -1.16648 0.0909255 0.773131 0.6114 -0.828292 0.83955 0.791847 -0.564264 -0.586451 -0.277753 0.0951329 -0.638415 -0.533509 -1.2527 -1.63345 0.851398 0.111775 1.04945 0.615532 1.21238 -0.399464 0.717783 -0.42555 1.08824 1.53156 -0.505731 0.410568 -0.130717 -1.76969 0.976435 0.486563 -0.742776 -1.43335 -0.211294 -0.0648564 0.99104 -0.496385 -1.0201 0.791474 0.4609 0.777485 -1.03191 -0.579338 0.497531 -1.0306 0.658539 0.247594 -1.04789
each 0.139484 0.581319 0.203769 -0.382122 -1.04882 -0.597842 0.16963 -0.806563 -0.00777009 -0.0229781 -0.420805 -0.861564 -0.38657 -0.852992 -0.263399 0.150851 -0.753814 0.717591 -0.126882 -0.210451 0.524242 0.153057 0.345482 -0.107056 0.155045 -0.279925 -0.235987 -0.473437 0.282812 -0.575303 -0.0302163 -0.207447 0.75449 -0.197571 -0.278597 -0.127711 -0.00425192 0.351381 -0.208998 -1.08345 -0.737342 0.230281 0.641403 0.0400227 -0.566446 -0.587751 -1.07786 -0.412873 -0.112265 -0.228535
released 0.323588 1.68405 -1.02501 0.651096 -0.25888 -0.217252 0.182134 -0.493163 -0.0945091 -0.0274458 0.956634 0.462715 -1.87529 -0.803202 0.144765 0.294618 -1.08571 -0.238647 -0.567746 0.599523 0.418509 0.375537 0.202506 0.164652 -0.941848 0.333487 0.87446 -0.434968 -0.0635518 0.194183 0.174982 0.447389 0.112815 -1.21796 0.657607 -0.115142 0.338744 -0.462799 0.696495 0.504435 0.141082 0.026144 0.606233 0.0088458 -0.648469 1.57216 -1.4514 -0.0492239 0.382337 0.32031
government -0.219103 -0.433604 -0.978725 -0.0401453 0.159596 0.0864354 -0.308758 0.815459 0.73352 -0.514431 -0.665797 -0.285867 0.116453 0.200304 -0.36889 -0.530394 -0.127852 1.15451 -0.333825 0.140459 -0.281437 1.20486 0.0719569 0.340176 -0.409052 0.884452 0.779144 -1.0925 -0.810043 -0.526927 -0.601914 0.624603 -0.269616 -0.173278 0.784575 0.278479 0.655184 1.07799 -0.840775 0.00600585 -0.728135 1.09584 0.0474967 -0.584669 0.15725 -0.0224064 -1.50335 -0.097143 0.112214 -0.103271
located 0.714213 -0.739919 -0.638377 0.0187621 0.408835 0.474954 -1.24519 0.486288 0.773918 0.205523 0.409709 -0.851909 -0.943868 -0.568835 -1.12267 -0.27208 -1.72769 0.885321 0.77599 1.37166 0.299123 0.593018 0.0681682 0.0777581 -0.48161 0.824046 0.812349 -1.0707 1.28044 0.137412 0.502531 0.181275 -0.172357 -0.18627 -1.64698 0.195401 -0.286961 -0.157674 -0.0336047 -1.17928 -0.31798 -0.102498 0.292271 -0.863412 0.564231 0.308488 -0.460155 -0.786927 0.86271 0.578849
day 0.302765 -0.0337717 -0.124328 -0.145386 -0.400702 0.00804564 -0.406436 -0.376428 0.331504 -0.921714 -0.236953 -0.652085 -0.521588 0.340615 0.235808 -0.0661813 -0.65066 -0.192945 -0.106828 0.0525596 -0.299346 0.776295 0.495551 0.0748605 0.468353 0.0959237 0.75543 -0.323758 0.0541376 -0.621333 0.0523451 0.339497 0.738563 -0.416656 -0.204123 -0.593187 0.38547 0.551438 0.320543 -0.70385 -0.138345 0.314798 0.356955 0.135185 -0.681325 0.152247 -0.475349 0.0138901 -0.698366 0.901168
district 0.393222 -1.39297 -0.759606 -0.450781 -0.537765 0.500063 -1.59109 0.390308 0.894295 0.261798 0.13189 0.641517 -0.740049 -0.817419 -0.286929 -0.607175 -0.873987 1.71915 0.0602802 0.4932 0.462162 1.29062 -0.175343 0.058238 -0.93345 1.61914 0.0397002 -0.84476 0.269138 -0.209905 -1.24589 1.23907 -0.57092 0.527712 -1.3437 -0.938795 0.163078 0.82519 -0.302111 -0.173896 0.15953 0.55162 0.0339719 -0.400312 0.0628648 0.535224 -1.10742 -0.977316 0.689914 0.631857
same 0.0571734 0.490613 0.276479 0.0550861 -0.115563 0.0903384 -0.0883348 0.0980216 0.160683 -0.210943 0.0447948 0.101149 -0.635851 0.195387 -0.160741 0.254647 -0.624788 0.0300499 -0.316385 -0.520384 0.124704 0.467593 0.150084 -0.050415 0.132133 0.291861 0.0778566 -0.370998 0.611793 -0.688336 -0.251572 0.418539 0.218224 -0.246358 0.143209 -0.407068 -0.115921 -0.150587 0.155888 -0.518055 -0.611306 0.333324 0.497748 -0.597364 -0.560517 0.269676 -0.613507 0.361484 -0.259752 0.443269
based 0.659881 1.16943 -0.0970605 -0.108881 -0.358422 0.268247 0.164628 -0.0125022 0.699743 0.0918371 0.290992 -0.313314 -0.2655 -0.187924 -0.840768 -0.116154 -0.387914 0.306651 0.147955 0.0139788 0.810913 -0.0722263 -0.0807325 -0.148749 -0.352725 0.442027 0.370714 -0.66611 0.28433 0.120144 0.483604 0.402536 -0.169181 -0.405568 -0.383467 0.569061 0.0160904 -0.0797419 0.522148 -0.237393 -0.0743223 0.387017 0.633388 0.169643 0.383909 0.766932 -0.528385 -0.139649 0.466049 0.246233
if -0.175542 0.177537 0.703746 -0.256701 -0.279941 -0.78162 -0.131097 -0.227173 0.220345 -0.0252367 -0.251063 -0.359646 -0.183946 -0.36907 -0.28204 0.687045 -0.161991 0.167574 -0.373036 -0.561559 0.442829 1.46378 0.170501 0.0312674 0.0118444 0.0118688 0.302044 0.188752 0.240487 -1.15105 -0.811808 -0.237731 0.0116698 -0.86629 -0.118668 -0.153769 -0.867664 0.00687042 0.225496 -0.105419 -0.960967 -0.17253 0.319645 -0.629112 -0.413522 0.549466 -1.22814 0.510944 -0.153931 0.677436
east -0.0691068 -0.653147 -0.140027 0.0951241 0.0347539 0.510426 -0.438484 0.332535 0.734435 0.0801888 0.0579485 0.455829 0.697073 0.742421 -0.0936455 -0.277698 -1.7467 0.928722 0.219905 1.51091 0.731724 0.0558717 0.458451 -0.00335461 -0.64717 0.362257 0.335216 -0.278606 0.0687777 0.597045 -0.139746 0.378954 0.399638 -0.0931539 -1.05981 -0.719548 0.562632 0.953955 -0.224284 -0.741302 -0.389355 -0.0309772 0.0674484 -0.354399 0.428693 0.335855 -1.16563 -0.77288 0.330217 0.758879
like 0.240538 0.272124 0.501785 0.503289 -0.52857 -0.583768 0.0892766 -0.101567 0.199266 -0.415147 0.158689 0.0279196 -0.288138 0.422901 -0.784312 -0.0625692 -0.814519 -0.207537 0.472818 -0.336513 0.741155 0.500304 0.342395 -0.177666 -0.449091 -0.0146669 0.187218 -0.136643 -0.344098 -0.639158 -0.375275 -0.714899 0.310074 -0.120609 -0.17751 0.229808 -0.65494 -0.0428388 0.104727 0.194502 -0.722556 0.087631 0.109587 -0.235226 -0.135516 0.543156 -0.320486 -0.035339 0.168839 -0.145439
house -0.693822 -0.601453 0.157714 0.351017 -0.641265 0.450395 -0.362354 -0.155474 -0.431205 -0.810967 0.159744 -0.311063 -1.48141 -0.184071 0.312538 -0.429684 -0.218122 0.552585 -0.169146 0.74029 0.440925 1.09122 0.884594 -0.277342 -0.429664 1.2654 -0.129172 -1.54612 -0.174303 -0.624212 -0.113751 0.0232473 -0.470968 0.738662 0.232503 0.0773859 0.315249 0.200151 -0.250413 -0.525544 -0.334251 0.0125483 -0.251918 -0.52027 0.126414 -0.209346 -0.912479 0.154194 0.108188 0.315022
john 0.0668055 -0.814552 0.281859 0.00959616 -0.90832 0.344578 0.562789 0.281856 0.225121 -1.0516 0.161577 -0.741777 -0.70862 0.529256 -0.0328352 0.591635 -0.337578 -0.195088 -0.872808 0.957511 0.819056 -0.0341175 -0.0181278 0.192161 0.183024 0.577238 0.633856 -0.785461 0.127293 0.159513 -0.451775 -0.196341 0.530802 0.582107 0.557338 0.120737 0.168973 0.264547 0.706751 0.25138 -0.287137 0.236972 1.03119 0.816755 1.03676 0.120309 -0.77237 -0.0348303 0.286081 0.619579
any 0.299097 0.289157 0.417477 -0.367945 -0.639655 -0.974424 0.448903 -0.175565 0.34477 -0.237388 -0.0563634 -1.13952 0.157385 -0.790364 -0.402588 0.58164 -0.0527959 0.59799 -0.244264 -0.520291 0.550434 0.676848 0.456294 0.601822 -0.0101992 -0.00183235 0.718824 -0.121753 0.300732 -0.348871 -0.649749 -0.0121884 0.138006 -0.794718 -0.0204816 0.164725 -0.146623 0.458403 0.131778 -0.396456 -0.232111 0.13823 0.261737 -0.442359 -0.406721 -0.0969528 -0.867639 0.0877183 0.273585 -0.344769
band -0.132888 0.549941 -0.76951 0.65732 -0.425145 -0.412517 1.13928 -0.354925 0.411758 0.176239 0.401539 0.296304 -1.79747 -0.15061 -0.345882 0.597547 -2.15577 -0.849973 -0.62445 -0.281184 0.214399 2.14209 0.104401 0.0350146 0.315007 1.45974 0.488614 -0.229232 -0.923279 1.03351 0.497754 0.568418 0.879883 0.912764 0.0891663 -1.44531 -0.341497 0.0330851 0.188746 0.66827 -0.184044 -0.130587 0.369977 -0.279691 -1.14637 0.551761 -0.801905 0.624691 0.293167 0.00578002
station 0.472439 0.872753 -0.686551 -0.0478422 0.124015 -0.050063 -0.884809 1.49376 0.0293743 -0.245282 -0.434846 0.11883 -1.02187 0.280788 -1.33583 1.03444 -1.45333 -0.516116 0.807334 1.29205 -0.410399 1.96553 0.255258 -0.418542 0.305661 0.967324 1.1528 -0.796517 -0.730324 0.175184 0.240774 1.50877 0.33236 0.129748 -0.130844 -0.149724 -0.542131 1.28995 0.270371 -1.05868 -0.584487 0.0146442 -0.748975 -0.5367 0.807801 -0.0823883 -0.962319 -0.894828 -0.405587 0.823957
general 0.499197 -0.325644 -0.201949 -0.476407 -0.534521 0.506573 -0.132986 0.626115 0.844696 -0.240073 0.591196 -0.231346 -0.561473 -0.00106197 -0.863917 -0.133385 0.535248 0.634294 -0.471836 0.0415415 -0.163384 0.250935 -0.0356114 -0.169377 0.380115 0.170902 0.244313 -0.514734 -0.128635 -0.781735 -0.461773 -0.216518 -0.0866405 0.270145 0.211039 -0.039917 -0.0560152 0.999058 -0.201829 0.0815989 -0.626057 0.488238 0.668937 -0.290218 0.279136 0.186641 -1.0628 -0.27337 -0.151513 0.403496
because -0.448585 -0.179985 0.523201 0.159358 -0.134563 -0.433361 -0.0459225 0.112835 0.231275 -0.238243 -0.0037817 -0.215185 -0.105575 0.121487 -0.319115 0.409874 -0.300887 0.391728 0.271134 -0.268997 0.254967 0.828009 0.225465 0.49678 0.43876 0.0337139 0.503234 -0.192222 -0.028825 -0.493224 -0.801606 0.0680889 -0.116158 -0.466416 0.0134091 0.162861 -0.462653 0.106377 0.192036 -0.22519 -0.377656 0.00686697 0.347318 -0.395027 -0.570622 0.696166 -0.592451 0.343842 0.0409054 0.0642421
end -0.320036 0.129023 0.130782 0.407689 0.142849 0.368857 -0.137418 -0.197814 0.0907992 0.0540159 0.247936 0.207325 -0.240888 0.65022 0.0657004 0.283618 -0.608307 0.9293 0.232922 0.350513 0.268536 0.412897 0.598359 0.0797968 0.616464 0.477097 0.0709484 -0.554944 0.265263 0.093319 -0.188924 0.306595 0.543128 -0.497171 0.0930342 -0.759466 0.250289 0.487683 0.26481 -0.980048 -0.28073 -0.0382344 0.577363 -0.0130404 -0.6063 0.089629 -0.741171 -0.118894 -0.507888 0.651079
system -0.120104 0.560248 0.143061 -0.167053 0.0311046 0.656164 -0.438083 0.702334 0.842152 0.616901 -0.276271 -0.113793 -0.370925 -0.485313 -1.17819 0.483916 -0.476545 0.581747 0.439415 0.041991 0.732615 0.662784 -0.28295 0.242224 0.263524 -0.0971555 -0.0901511 -0.657837 -0.254775 -0.410985 -0.139422 0.547298 0.0162322 -0.779098 0.355552 0.0652527 0.167693 0.499397 0.245446 -0.146649 -1.04637 0.473346 0.656032 -0.598352 -0.0540451 -0.502288 -1.00258 0.008114 -0.421525 -0.347372
river -0.459518 -0.937536 -0.687704 -0.253097 0.385349 0.685384 -0.90039 0.566481 1.85695 0.236487 -0.293251 -0.393186 -0.317191 0.428792 0.686728 0.577758 -1.80396 -0.2841 1.42943 1.12271 0.275772 1.43934 -0.125737 -0.0763812 -1.12315 1.47268 -0.521091 0.34243 0.488044 0.0053437 -0.332051 -0.554321 0.164752 -0.301043 -0.531491 -0.757969 -0.219923 0.942973 -0.12199 -0.712418 0.482599 0.641959 0.842928 -0.0826709 0.290827 0.557747 -1.39941 -0.753744 0.216348 0.62543
line 0.283319 0.78419 0.0740506 -0.26949 -0.161192 -0.180681 -0.0581767 0.920679 0.806671 0.050693 -0.360818 0.781265 -0.140799 -0.182831 0.240194 0.685226 -1.57277 0.564094 0.371858 0.433991 0.318592 0.53035 0.242296 0.162696 -0.0886347 0.75616 0.321332 -0.043272 0.218322 0.61864 -0.254903 0.321726 0.817086 -0.2357 0.390492 -0.158319 -0.142559 1.10762 0.916567 -0.912084 -0.0869874 -0.00770232 0.494244 -0.605574 0.192022 -0.326477 -0.687003 -0.403597 -0.187903 0.16263
league -0.381756 0.186949 0.597371 0.124537 -0.227382 1.06362 0.400234 -0.219357 0.431229 0.00603185 0.754678 0.845284 0.32424 -0.812964 -0.271558 0.428796 -1.29371 1.21214 0.202262 -1.08743 0.420785 0.81971 -0.0836601 0.320862 -0.0941023 1.11654 1.61157 -0.895567 -0.270152 -1.01258 0.0319138 1.51942 1.66679 -0.92992 -0.50808 -1.3729 0.343875 1.49056 -1.01763 0.940092 0.101899 -0.394596 0.689879 1.19847 0.611732 0.310381 -0.983179 -0.574931 0.627053 0.654297
college 0.372875 -1.03844 0.641539 0.249326 -0.141248 0.587718 -0.33868 0.164834 0.994539 -0.231318 0.444325 -0.659657 0.0389526 -0.641682 -0.936931 0.000487362 -0.826 0.241276 -0.301015 1.10326 0.577145 0.633589 0.409475 0.418423 -0.428209 -0.0789908 1.11179 -1.05234 -0.538914 -0.747708 0.119012 1.85462 0.153389 1.11054 0.163721 -1.09222 -0.418302 -0.192489 -0.551538 -0.327926 0.197963 0.107238 1.12221 0.529547 0.321561 -0.682452 -0.377327 -0.0535263 0.22056 1.07377
long -0.250165 0.115149 -0.282893 0.347123 -0.374733 -0.674133 0.0269891 -0.216737 0.197308 0.601739 0.0154367 -0.390697 0.0137117 0.319229 -0.552576 0.535972 -0.357971 -0.843835 0.304462 -0.0822142 0.644776 0.0902365 0.922597 0.623016 -0.130107 -0.126038 0.205913 -0.231744 0.542067 -0.345525 -0.372694 -0.0545629 0.645026 0.227963 -0.029373 0.0997715 0.325794 0.598928 -0.415609 -0.672702 -0.475791 0.090153 0.166658 -0.216558 -0.261134 0.19641 -0.542674 -0.295483 0.0681788 0.320708
won -0.23419 -0.471609 -0.022573 0.595699 0.0263854 -0.803153 -0.71156 -0.384518 0.521741 -0.28341 1.00282 0.370792 -0.742814 -0.0192737 0.308361 -0.231406 -1.46752 0.518578 -1.02586 -1.52627 0.238419 0.372264 -0.325569 -0.817716 -1.45335 -0.489879 0.924204 -0.941658 0.916868 -0.666437 0.146028 0.312193 1.17641 0.00491712 0.360758 -0.487267 0.0834671 0.1858 -0.414873 0.382275 0.488846 0.390445 1.59152 0.692171 0.864441 0.392816 -1.27109 0.0354623 0.28054 0.787788
home -0.328582 -0.0513859 0.173868 0.39535 -0.0590728 0.33545 -0.310082 -0.0293188 -0.116195 -0.409223 0.283512 -0.381629 -0.474018 -0.216876 0.216983 -0.0789923 -0.525662 0.681457 0.38276 0.348684 0.213256 0.729092 0.494077 0.59949 -0.202633 0.255744 0.861408 -0.918721 -0.283382 -0.770436 0.354515 0.23638 0.457037 0.0473803 -0.350951 -0.230292 -0.440417 0.324435 0.277328 -0.335891 0.47408 -1.0924 0.0831991 0.186929 0.0381791 0.214403 -0.630627 -0.555495 -0.0140451 0.378884
back 0.159612 0.21169 0.563112 0.359258 0.145696 -0.371649 0.00485064 -0.418477 0.10605 -0.10388 0.512305 0.273785 -0.137148 0.583203 0.435635 0.324523 -0.797563 0.460766 0.195803 0.287981 0.75659 0.787557 1.10537 0.725777 0.351992 0.0886146 0.127077 -0.0254453 -0.121467 -0.130931 0.263828 0.0534759 0.0937559 -0.166277 0.278928 -0.470552 -0.333568 0.320892 -0.206033 -0.678011 -0.333086 -0.383807 0.138496 0.24115 -0.0366878 0.0847771 -1.18486 -0.0451289 -0.319342 0.452717
york -0.279595 -0.812567 0.453018 -0.992219 -1.15913 0.611913 0.41769 -1.11926 0.929282 0.0798098 -0.551313 0.704761 -0.985764 0.966778 -0.111461 1.10295 -0.0564825 0.0519682 -0.439718 0.66361 1.17024 0.0634099 -0.153174 0.764332 -0.568646 -0.0713305 2.22522 -1.64246 -0.509031 -0.157873 0.594201 1.17631 0.943958 -0.87567 1.6237 -0.982903 0.0416014 0.165427 0.800464 -0.940585 -0.241713 -1.16966 0.716403 -0.789269 0.525212 -0.540362 -1.01878 -0.104226 2.25099 0.311691
career -0.333004 -0.0454585 0.0902078 0.900086 -1.23114 -0.0263287 -0.0669419 0.533821 0.319643 0.177131 1.72516 0.0471849 -0.0128221 0.276038 -0.193261 0.102597 0.164631 0.133638 0.181578 -0.624881 0.41708 0.0239638 0.728024 0.79408 -0.485544 -0.101972 1.14144 -0.412962 -0.0708933 0.0854705 0.327724 1.7381 0.66826 0.882078 1.26326 -1.07165 -0.136077 0.299318 0.118851 0.0186989 0.307987 -0.0816869 0.925306 1.37876 0.103618 0.74407 -1.14244 -0.164724 0.315198 0.739812
began 1.14208 0.305891 0.381726 0.065308 -0.0606673 0.0850982 0.113522 0.0964767 0.321924 -0.145238 0.755548 -0.0540697 -0.593934 1.56305 -0.399968 -0.0208544 -0.653565 0.210622 0.401565 -0.386138 0.529201 0.171336 0.488858 0.573328 -0.129399 0.0371387 0.793891 -0.363342 -0.379608 -0.389035 0.779711 0.42222 0.585759 0.208501 0.89379 -0.298503 0.702713 -0.126477 -0.00870506 -0.489696 0.593132 0.657307 0.078355 0.455343 -0.0581581 0.385496 -1.00209 -0.0381167 0.0463873 0.242192
following 0.208057 0.00135868 0.159834 -0.0049036 -0.272681 0.281115 0.0421705 0.56659 0.190129 -0.0193505 0.0397685 0.0211341 -0.657429 0.682641 -0.159783 -0.386267 -0.785849 0.0211071 -0.494956 -0.412077 -0.275868 -0.285853 0.153611 0.186655 0.289879 0.384982 0.0927425 -0.483626 0.0134375 -0.687876 -0.279452 0.45045 0.577721 -0.467501 0.219055 -0.481128 0.293 0.0982437 0.166467 -0.153113 -0.262618 0.112302 0.50031 0.329571 -0.719655 0.359141 -1.10897 0.101956 -0.35388 0.735232
found -0.285564 -0.177048 0.15452 -0.460049 0.289338 -0.404148 0.129055 -0.11577 0.11017 -0.337214 0.88051 -0.187808 -0.592735 -0.0944344 -0.537833 -0.24591 -0.786871 -0.0132753 0.351967 0.466927 0.604749 0.169017 0.440952 0.320598 -0.362655 0.409554 0.71279 0.335731 0.616547 -0.65409 0.0966495 -0.319577 -0.222674 -0.339931 -0.516257 0.705622 -0.171766 -0.789549 -0.0295864 0.0166761 -0.21221 0.126413 0.346607 -0.630273 -0.122461 1.07154 -0.758653 0.0308162 0.254399 0.226205
century -0.657032 0.0204229 0.922473 -0.0543885 -0.143929 0.904401 0.296141 0.215788 0.0997882 -0.984049 0.103988 0.248676 -0.553495 1.42208 -0.530945 -0.193259 -1.10841 0.27251 0.949087 0.631246 0.252384 0.271384 0.388252 0.506458 -0.424589 0.6532 0.536577 -0.78844 1.18153 -0.387694 -0.737887 0.337663 -0.329137 -0.086202 -0.0526924 -0.918129 0.886162 0.583164 -0.190234 -0.2693 -0.0791 1.0698 0.993116 -0.166023 -0.184916 0.285365 -0.0740692 0.508612 -0.428392 -0.208768
around -0.0941757 -0.0519982 0.0154999 0.289529 0.000198912 -0.496591 -0.1129 0.126492 -0.0665898 -0.141976 -0.364017 -0.29196 -0.296001 0.855937 -0.460276 -0.520858 -1.28952 -0.116098 0.437744 0.268856 0.326125 0.390608 0.261631 0.124393 -0.290074 0.0294093 -0.0371701 -0.39163 0.0910522 -0.483231 0.026151 -0.0358919 0.267558 -0.101571 -0.316235 -0.111894 -0.276503 0.340809 -0.0207628 -0.585699 -0.42855 -0.0963283 0.218329 -0.0461402 -0.536719 -0.101924 -0.712923 0.425139 0.0425721 0.190226
international -0.254852 0.309471 -0.0441815 0.785132 -0.748342 -0.16229 -0.228456 -0.199449 0.931198 0.97845 -0.0612589 -0.828276 0.589559 0.542127 -0.622605 -0.415408 -0.366506 0.0902906 -0.341939 -0.631106 -0.747832 -0.163474 -0.0206912 0.0492354 -0.541256 0.519182 1.32783 -1.06499 -0.0716653 -0.263354 0.957908 0.705581 0.74412 -0.502413 -0.0829202 0.0581495 0.12338 0.0587945 0.105068 0.199594 -0.700785 0.346121 0.602636 0.284513 0.210585 0.0615636 -0.787672 -0.423651 0.655854 0.422861
member -0.659989 -0.663526 -0.698988 1.02825 -1.60017 0.484669 0.262452 0.0771996 0.196741 0.487734 1.10238 -0.0880776 -0.748294 -1.20565 -0.167643 -0.335104 -0.465123 0.403761 -0.379165 -0.074261 0.214677 0.202179 -0.279645 -0.13546 0.390021 0.849546 1.06193 -0.93879 -0.102114 0.290864 -0.0127456 0.412517 0.156014 0.16362 0.0370198 -0.195805 0.0417324 -0.260031 -1.39757 -0.0351998 -0.68829 -0.0184103 0.624643 -0.222241 0.643757 -0.10763 -0.761018 0.426255 0.120062 0.668037
although -0.333398 0.196904 0.501086 0.0522638 0.00173319 -0.25338 0.350102 0.463155 -0.101584 -0.213597 0.0342151 -0.0393004 -0.380356 0.460216 -0.811134 0.308396 -0.55172 -0.160145 -0.143865 -0.462648 0.263071 0.328205 0.284072 0.549812 -0.220628 -0.0635678 0.384516 -0.131458 -0.00721918 -0.72313 -0.658013 -0.0403593 0.0469287 -0.215357 -0.219766 -0.0974776 -0.042291 0.18517 0.0673714 0.140414 -0.460207 0.169264 -0.0226606 -0.315441 -0.399778 0.560232 -0.678249 0.103339 0.153357 0.359117
public -0.0577691 -0.114562 0.0690761 -0.300994 -0.113629 -0.315015 -0.476447 0.300738 0.719645 0.0593116 -0.958926 -0.961261 -0.448171 -0.136147 -0.888876 -0.29164 0.105019 0.474638 0.0492107 0.111682 0.0140451 0.523278 0.280754 -0.0620001 -0.643365 0.505025 0.696413 -1.32472 -0.527481 -0.777917 -0.243437 0.902961 -0.235714 0.633726 0.53972 0.0315477 0.333633 0.508884 0.231526 -0.368227 -0.128001 0.32501 -0.269554 -0.146588 0.414734 0.224167 -0.817168 -0.20815 0.133732 0.140894
british -0.924781 1.16455 -0.74774 0.234734 -0.704411 -0.0150426 1.33131 0.650169 0.759543 -0.848025 0.256399 -0.391091 0.847281 1.48198 -0.270507 0.0310718 -0.995825 0.127087 -0.918783 0.661316 -0.134662 -0.182573 0.314833 -0.589194 0.0884828 0.467241 0.674093 -0.83994 0.440279 -0.829979 0.456563 -0.0364765 -0.614453 0.155077 0.226365 -0.633447 -0.214029 0.613725 0.124309 0.357897 0.0150466 0.835697 -0.0120046 -0.405203 0.383653 -0.429497 -1.79419 0.252259 0.845474 0.483994
place -0.106477 -0.0304777 0.255932 -0.0523483 -0.305409 -0.0736271 -0.652554 -0.404721 0.168357 -0.480057 0.0635029 -0.861197 -0.393238 0.105337 0.203973 -0.265877 -0.479027 0.795027 -0.255948 -0.246336 0.127961 0.951626 0.506582 0.454297 0.138926 0.448893 0.0634471 -0.189809 0.726021 -0.343683 0.14593 0.231763 -0.0640034 -0.532785 -0.58595 -0.903301 0.26587 0.701713 0.30525 -0.640544 0.0813972 -0.227876 0.85365 0.109875 -0.0873254 -0.114554 -0.422661 0.227614 -0.0816897 0.375635
show -0.618313 1.30834 0.978182 0.384728 -0.106058 -0.509672 -0.560159 -0.734684 0.363191 -1.25067 0.161633 0.0521545 -1.26837 0.54001 -0.68685 0.00847557 -0.442064 -0.737471 -0.324356 -0.389605 0.353232 0.898893 0.100859 -0.734733 0.543921 0.607769 0.441729 -0.19689 -0.128876 -0.262216 0.408121 0.887723 0.616847 0.170697 -0.238888 -0.513894 -0.504551 0.0547449 -0.0378145 -0.951566 -0.220553 0.388711 0.169071 0.593689 0.0424381 0.642944 -0.891946 0.058691 -0.323256 -0.0068401
very -0.71853 0.26433 0.164524 0.302591 -0.0992506 -0.572674 0.00159516 0.086921 -0.101856 -0.163993 0.474704 -0.457101 -0.103671 0.312651 -0.901031 0.178324 -0.441001 0.145822 0.456944 0.00307359 0.452744 0.837453 0.614304 0.36343 -0.191227 -0.442423 0.345298 0.0917379 0.20393 -0.403841 -0.766927 0.0132042 0.281784 0.30321 -0.20758 -0.0195773 -0.741453 0.490601 0.030526 -0.139084 -0.396618 0.187972 0.317116 -0.193564 -0.574094 0.90374 -0.0259519 0.207666 0.173616 0.198019
party -0.80955 -0.661923 -0.788182 0.450159 -0.928414 -0.0288047 -0.0328539 -0.204844 -0.105321 -0.237961 0.592644 0.395193 -0.743878 -0.413345 -0.193971 -0.993453 -0.378143 0.739475 -1.08865 -0.795508 0.342859 1.48514 0.389083 -0.625106 -0.210501 1.22314 0.0996249 -0.960518 -0.72721 -0.65487 0.141704 0.203411 0.457481 0.0266484 0.785074 0.190409 0.286862 1.93159 -0.636516 -0.0234027 -0.538782 0.288823 0.0983969 -0.955029 0.379544 0.722725 -1.23174 1.01255 -0.403967 0.150635
named 0.481954 -0.306495 -0.69871 0.875801 -0.102815 0.581237 -0.366502 0.34405 0.156675 -0.280565 0.313279 0.0137753 -0.696213 -0.185779 -0.178331 0.446725 -1.00539 -0.184497 0.0614024 0.372158 0.349125 -0.115249 -0.229542 0.333548 0.0531651 0.173656 0.822926 -0.522174 0.820176 -0.819147 -0.125105 -0.133565 0.0596852 0.0313726 -0.253337 0.206504 -0.118867 -0.267238 -0.282293 -0.249611 -0.441163 -0.33932 0.96534 -0.10718 0.737088 0.535553 -0.143242 -0.386106 0.159945 0.703753
another 0.305776 0.274499 0.131408 0.200857 -0.743908 -0.413621 0.12895 -0.152955 -0.0355202 -0.0257279 0.0251383 -0.266201 -0.131443 -0.0279375 -0.241782 0.317502 -0.274553 0.0278147 -0.0164125 -0.06715 0.434641 0.279486 0.503716 0.513726 0.28861 0.144778 0.0957959 -0.0953978 0.354591 -0.457631 -0.149986 -0.151359 0.0135644 -0.401288 -0.0411907 0.00127376 -0.211769 0.427294 0.20756 -0.407922 -0.153946 -0.0160041 0.500522 0.0413817 -0.0171068 0.28374 -0.581375 -0.159113 0.0598237 0.0695672
major -0.00647032 0.147792 -0.11418 -0.201498 -1.04433 0.28018 -0.0280328 0.197416 0.396146 0.150252 0.00335282 -0.189503 -0.390534 0.303718 -1.02228 0.022694 -0.35833 0.315255 0.62186 -0.173501 -0.0419268 -0.450105 -0.376977 0.239383 0.166665 -0.0971478 0.125936 -0.493213 0.0470624 -0.479917 -0.0445039 0.177435 0.445299 -0.152335 -0.112007 -0.437707 0.00103912 0.809343 0.0736685 0.372226 0.0800135 0.0157522 0.606475 0.202145 -0.132258 0.707785 -0.719376 -0.729223 0.405829 0.304971
best -0.856509 0.564926 0.0458431 1.05305 -0.984948 -0.314477 -0.179344 -0.556946 0.525531 -0.0960192 0.162977 -0.180992 -0.467189 0.331788 -0.0224064 -0.0892398 -0.481112 0.485928 -0.0438034 -0.393966 0.313369 -0.00472278 -0.365217 -0.490262 -0.496166 -0.381266 0.904127 -0.280767 0.301901 -0.189558 -0.725194 0.755958 -0.0549614 0.435715 -0.167113 -0.883045 -0.967718 0.254186 0.298298 0.302275 -0.184734 -0.667455 1.06593 0.512505 -0.0591275 0.66028 -0.473046 0.0541512 -0.0939675 0.540099
club -0.49843 0.405749 0.513629 0.973988 0.330904 0.737178 0.56833 -0.58612 -0.518663 0.472705 0.324055 -0.198753 -0.115667 -0.424516 -0.0169607 -0.430788 -1.31047 0.0414126 0.411448 -1.072 -0.368314 1.32644 0.673333 0.418951 -0.325269 1.27387 1.27564 -1.02887 -0.0396466 -0.531348 0.417854 1.10434 1.07599 0.268265 -0.315836 -0.893825 -0.881686 0.699633 -0.351028 0.25445 -0.157987 -0.00820652 0.496201 0.785085 0.461513 -0.0218327 -0.601266 -0.50801 0.755813 1.46658
small 0.0358642 0.251121 -0.287537 -0.0455803 -0.399681 -0.147961 0.24556 0.0336052 -0.0320036 0.292938 0.241035 -0.475724 -0.415641 0.125596 -0.707211 -0.375352 -0.700662 0.204393 0.78447 0.573853 0.714306 0.412643 0.668996 0.174981 0.0132646 0.0961456 0.136264 -0.496902 0.450512 -0.40094 -0.319947 -0.530083 0.211478 0.374191 -0.807167 0.675667 -0.76452 0.641319 -0.350801 -0.631555 -0.170944 -0.0276999 -0.0761163 -0.380113 -0.184539 0.213411 -0.548368 -0.0740308 0.438656 -0.121554
within 0.144313 -0.439482 0.145105 0.270446 -0.0380534 -0.146534 0.0299659 0.77521 -0.033429 0.730031 -0.700235 -0.334833 -0.230925 0.115862 -0.650124 -0.377721 -1.00569 0.358282 -0.0131279 -0.160072 0.599782 -0.122068 0.270852 -0.185998 -0.478048 0.549746 -0.12694 -0.405613 -0.522421 -0.558537 -0.803086 0.183983 0.195228 -0.416433 -0.739068 -0.190718 -0.10674 0.188234 -0.228228 -0.0948603 -0.663738 -0.0100134 0.130071 -0.607039 -0.850143 0.0694788 -0.97406 0.251473 -0.0326767 0.245996
former 0.190257 -0.668636 -0.188094 0.943036 -0.574272 0.35969 -0.101416 0.664688 -0.0259874 0.066538 0.467063 0.315413 0.00260277 -0.118993 -0.471844 0.0109108 -0.847922 0.207072 -0.157051 -0.104601 0.0811061 -0.0335203 -0.125848 0.405846 0.326335 0.95819 0.570806 -0.994364 -0.106054 -0.141676 -0.252406 0.0762544 0.24472 0.211246 -0.108369 0.0911561 0.314081 0.181647 -0.0303991 0.210027 -0.792904 -0.315049 0.0141733 0.416105 0.780764 0.431702 -0.691476 -0.554414 0.435538 0.440815
church 0.0011713 -1.4516 0.690013 -1.10362 -0.519345 0.165776 0.223083 0.696659 -0.458958 -0.661746 -0.996492 -0.89019 -1.06974 0.468207 0.447907 -0.127916 -1.1209 0.582979 0.152989 1.74883 0.712006 1.35321 0.781673 0.326662 0.423578 1.33664 1.39055 -1.51018 -0.590806 -0.416798 -0.292477 1.31707 0.58232 0.686529 -0.669002 -0.979384 0.781627 0.400862 -0.148965 0.700953 -1.07931 0.835685 0.0964941 -0.267062 0.316212 1.29623 0.406102 1.05121 -0.631547 0.296585
local 0.422123 0.0879162 -0.445542 -0.545922 -0.329414 -0.277088 0.379689 0.128464 0.477841 0.00318699 -0.332037 -0.481886 -0.271 0.201877 -0.903167 -0.587729 -0.729175 0.329275 0.352878 -0.0675098 0.28079 0.502185 -0.0802324 0.598196 0.0983253 1.16025 0.341131 -0.982545 -0.382748 -0.668771 -0.361609 0.296947 0.321534 0.353447 -0.14392 0.0327255 -0.439783 0.527565 -0.34079 -0.41323 0.0806618 0.192469 -0.44288 0.328398 0.331278 0.268583 -0.585566 -0.272997 -0.175828 0.00899139
could 0.13333 0.239243 0.575791 -0.666928 0.338189 -1.01798 0.171844 0.388272 0.294372 -0.614163 -0.471823 -0.222885 -0.339585 0.386473 -0.519469 0.942127 -0.537674 0.0431748 0.0324238 -0.620779 0.525492 1.47246 0.218145 0.721907 -0.727252 -0.702221 0.20294 -0.0972983 -0.0420262 -1.19335 -0.167511 -0.481312 0.263203 -0.47859 0.584353 0.405973 -0.265846 -0.246053 0.139236 0.00906733 -0.506487 0.460477 0.678132 -0.0983776 -0.233435 0.453324 -1.42753 0.948601 0.206244 0.665505
march 0.663468 0.293576 -0.124351 -0.169543 -0.870987 0.548719 -0.315839 0.287706 0.665413 -0.016359 0.955779 -0.205432 -0.851168 -0.214205 0.109959 -0.488511 -0.333264 -0.248547 -0.838981 0.295533 -0.307084 0.44586 0.837747 0.074637 0.157284 0.247031 0.922088 -0.186973 0.370655 0.443025 0.296977 0.520817 -0.13766 -0.422234 0.109731 -0.0128412 1.18501 0.882152 0.237041 -0.269824 0.311854 -0.058779 0.119082 0.619135 0.573794 0.663891 -1.0432 -0.216829 0.197717 0.713515
village -0.0400772 -0.467298 -1.28246 0.304469 0.183345 0.525525 -1.19159 0.808065 0.0326899 -0.0382715 -0.17304 0.202733 -0.36077 -0.259026 0.332841 -0.747378 -0.991073 0.640493 0.48935 1.22716 0.906142 1.20638 0.9819 0.528934 -1.23346 2.35519 0.903465 -0.652775 0.141288 -0.309687 -0.631633 0.242364 -0.446754 0.145539 -1.78374 -0.844529 -0.545871 1.00668 -0.174691 -0.742266 0.693481 0.0377602 0.623394 -0.525222 -0.373582 0.565475 -0.163166 0.111886 0.0347387 0.215334
large -0.276892 0.233132 -0.0104331 -0.290153 -0.433637 -0.325147 0.351335 -0.0410674 0.10557 0.0747034 -0.161667 -0.68794 -0.473565 0.246608 -1.01306 -0.379942 -0.627344 0.429998 0.884855 0.485348 0.464381 0.420969 0.461027 0.0662431 0.253417 -0.187876 0.101184 -0.726004 0.525365 -0.405953 -0.37147 -0.573976 0.289686 0.243977 -0.403379 0.705809 -0.220195 0.62086 -0.483781 -0.458721 -0.0717068 -0.0996529 0.195033 -0.213267 -0.39341 -0.0054294 -0.808316 -0.104513 0.490922 -0.438474
often -0.719341 0.513913 0.446009 -0.0522382 -0.840071 -0.777951 0.799704 -0.337108 0.578572 -0.104486 0.028913 -0.397832 -0.234517 0.00658359 -1.28747 0.0307134 -0.0895888 -0.0490601 0.444896 -0.213161 0.578729 0.341474 0.287275 0.576321 0.107784 0.150335 -0.00749902 0.148416 -0.0423441 -0.844549 -0.628812 -0.209625 0.0705622 0.378814 -0.101255 -0.171387 -0.270284 0.665883 0.229228 -0.492022 -1.18653 -0.00176274 0.0938817 -0.0791824 -0.212815 0.545787 -0.168773 0.217009 0.293546 -0.0237201
service 0.13341 0.837541 -0.647089 -0.672498 -0.291748 -0.0836068 0.0491456 1.49878 0.846124 0.113734 -0.427088 -0.672273 -0.306617 -0.103521 -0.0183382 0.105532 0.482342 0.515946 0.220044 0.187867 0.28783 0.390963 0.0505239 0.12183 -0.125643 -0.0817499 1.28022 -0.960433 -0.457528 -0.493005 0.5966 0.788172 0.232346 0.705484 0.189744 -0.270387 0.307851 1.11198 0.0987167 -0.80635 -0.855142 0.0479373 -0.103258 -0.129755 -0.26089 0.212302 -0.968617 -0.546697 -0.378515 1.00321
those 0.278177 -0.000674918 0.302565 -0.536085 -1.06761 -0.756492 0.536978 0.0208911 0.280149 -0.776955 -0.186574 -0.872701 0.246339 -0.690867 -0.345447 0.0399886 -0.455779 0.617438 0.242083 -0.0536556 0.583323 0.299138 0.0468261 0.676668 -0.134937 -0.054914 0.925354 0.231559 -0.0623661 -0.146055 -0.603081 -0.327168 0.648345 -0.0418732 0.092187 -0.0532478 0.393988 0.200611 0.146306 -0.561848 -0.295076 0.532339 0.364591 -0.133443 -0.253403 -0.353694 -0.747603 0.0341329 0.430499 -0.849126
old 0.15862 -0.099552 -0.0847549 0.665311 -0.242425 0.128909 -0.0693327 0.112415 -0.443104 -0.315449 -0.298414 0.0434229 -0.257548 0.387316 0.133185 0.17334 -1.19056 -0.179729 0.475258 0.0718892 0.409806 0.00822375 0.763494 0.752655 -0.0415929 0.547021 0.601347 -0.744838 0.49902 -1.1424 -0.538725 -0.00598998 0.199658 0.345388 0.032294 -0.535923 0.0582254 0.105039 -0.0477687 -0.40608 -0.495036 -0.124917 0.227599 -0.164013 -0.233349 0.139809 -0.0508064 0.0969408 -0.10614 0.416462
did 0.450221 0.0676201 0.855594 -0.57646 0.151895 -0.592717 -0.0619676 0.229124 0.159542 -0.905962 0.286739 0.0425798 -0.426141 0.764965 -0.380229 0.853873 -0.503547 0.0808351 -0.381064 -1.12338 0.332453 1.10041 0.334066 0.648664 -0.867533 -0.57232 0.732801 0.216365 -0.297977 -0.937264 -0.386354 -0.0790886 0.337014 -0.246143 0.600791 -0.41654 0.186235 -0.182266 0.00669899 0.434851 -0.12447 0.560473 0.0880775 -0.0835097 0.0284253 0.929024 -1.45836 0.485013 0.158116 0.720981
september 0.646156 0.39214 -0.161225 -0.211412 -0.66776 0.721422 -0.433564 0.37271 0.610089 -0.144006 0.84979 -0.224675 -0.742867 -0.226992 -0.0228572 -0.485616 -0.4056 -0.283288 -0.758663 0.329867 -0.21562 0.415935 0.949471 0.0906837 0.272447 0.0840729 0.975606 -0.273836 0.368199 0.48933 0.398253 0.765882 0.00705455 -0.429406 -0.00924841 0.0571101 1.16923 0.810352 0.366786 -0.3107 0.29858 -0.136165 0.117461 0.8008 0.600063 0.752154 -1.16768 -0.162928 0.336926 0.675836
song -1.06092 0.318848 -0.67036 1.16632 -0.915386 -0.725194 0.402829 -0.849696 0.794401 -1.10603 -0.438699 0.91198 -1.34421 -0.25751 0.428806 0.828624 -1.74455 -0.907256 -0.384713 -0.00232378 -0.199448 1.88126 0.765992 -0.568799 -0.939789 0.695371 0.243166 -0.625026 -0.138893 0.626142 0.0653221 0.540864 -0.166758 0.0393594 0.24817 -1.56275 -0.217637 0.333243 1.30517 -0.13617 -0.313038 0.718253 0.614139 -0.223357 -0.758895 1.80072 -0.783583 -0.188807 -0.679384 -0.111655
still -0.411338 0.186762 0.329262 -0.0133485 -0.0550418 -0.475232 0.0604668 0.14181 -0.365407 -0.249493 -0.109591 -0.3485 -0.30259 0.0697776 -0.601888 0.473922 -0.528109 0.0706581 0.369399 0.0375983 0.300483 0.683367 0.335116 1.08594 -0.109287 -0.0901098 0.251707 -0.417656 0.184812 -0.549964 -0.270836 0.0668823 -0.210133 -0.0694828 -0.187958 -0.0928696 -0.371041 0.416249 0.0308658 -0.188797 -0.55833 -0.03682 0.20148 -0.156621 -0.27349 0.616462 -0.384805 0.273744 0.315636 0.415815
along 0.243582 -0.195343 -0.254614 0.353931 -0.121293 -0.218172 0.172452 0.453029 0.217265 0.124939 -0.190466 -0.0870037 -0.211817 0.269914 -0.133554 0.0995974 -1.36676 0.229162 0.457295 0.61706 0.410674 -0.164987 -0.0690386 0.189593 -0.295642 0.645667 -0.50057 0.140603 -0.186198 -0.155798 0.353449 -0.280596 1.19763 0.0838931 0.281642 -0.04958 -0.0304469 0.440021 0.0510957 -0.661107 -0.679863 -0.0304742 0.334402 0.0932365 -0.198361 0.338047 -0.659666 -0.592718 0.341406 0.28309
january 0.639385 0.322364 -0.226481 -0.280205 -0.816367 0.752826 -0.460716 0.359243 0.581999 0.0343487 1.0517 -0.155253 -0.749826 -0.264548 0.062182 -0.502239 -0.278241 -0.29767 -0.886232 0.271405 -0.224835 0.508194 0.782401 0.223041 0.213784 0.225414 1.06158 -0.23721 0.507068 0.477713 0.140061 0.720547 -0.0859829 -0.39609 0.11229 0.105422 1.07139 0.721387 0.141357 -0.357654 0.192036 -0.0903767 0.0466531 0.766269 0.507894 0.745763 -1.01968 -0.334309 0.316471 0.691753
